{"graph_0": {"_type": "graph-file", "sha256": "b45bee1afdc2d316210de8ce8f160bd4d0d505fcac91583f7bff831f50a97e42", "size": 2817, "path": "media/graph/graph_0_summary_b45bee1afdc2d316210d.graph.json"}, "train_loss": 1.2012637782096862, "train_accuracy": 56.65199661254883, "test_loss": {"min": 0.7789624452590942}, "test_accuracy": {"max": 73.22999572753906}, "_timestamp": 1727963611.984602, "_runtime": 809.6110620498657, "_step": 437, "accuracy_epoch": 354, "parameters/seq.0.weight": {"_type": "histogram", "values": [1.0, 1.0, 0.0, 0.0, 2.0, 1.0, 1.0, 5.0, 4.0, 6.0, 7.0, 9.0, 3.0, 9.0, 6.0, 11.0, 15.0, 12.0, 22.0, 13.0, 19.0, 13.0, 22.0, 19.0, 17.0, 20.0, 23.0, 29.0, 33.0, 29.0, 22.0, 21.0, 30.0, 27.0, 26.0, 29.0, 26.0, 20.0, 17.0, 16.0, 21.0, 23.0, 22.0, 20.0, 17.0, 22.0, 25.0, 14.0, 17.0, 16.0, 9.0, 12.0, 14.0, 11.0, 8.0, 4.0, 8.0, 4.0, 2.0, 4.0, 1.0, 1.0, 0.0, 3.0], "bins": [-0.3241763710975647, -0.3144218921661377, -0.3046674132347107, -0.2949129343032837, -0.2851584553718567, -0.2754039764404297, -0.2656494975090027, -0.2558950185775757, -0.24614053964614868, -0.23638606071472168, -0.22663158178329468, -0.21687710285186768, -0.20712262392044067, -0.19736814498901367, -0.18761366605758667, -0.17785918712615967, -0.16810470819473267, -0.15835022926330566, -0.14859575033187866, -0.13884127140045166, -0.12908679246902466, -0.11933231353759766, -0.10957783460617065, -0.09982335567474365, -0.09006887674331665, -0.08031439781188965, -0.07055991888046265, -0.060805439949035645, -0.05105096101760864, -0.04129648208618164, -0.03154200315475464, -0.021787524223327637, -0.012033045291900635, -0.002278566360473633, 0.007475912570953369, 0.01723039150238037, 0.026984870433807373, 0.036739349365234375, 0.04649382829666138, 0.05624830722808838, 0.06600278615951538, 0.07575726509094238, 0.08551174402236938, 0.09526622295379639, 0.10502070188522339, 0.11477518081665039, 0.12452965974807739, 0.1342841386795044, 0.1440386176109314, 0.1537930965423584, 0.1635475754737854, 0.1733020544052124, 0.1830565333366394, 0.1928110122680664, 0.2025654911994934, 0.2123199701309204, 0.2220744490623474, 0.23182892799377441, 0.24158340692520142, 0.2513378858566284, 0.2610923647880554, 0.2708468437194824, 0.2806013226509094, 0.2903558015823364, 0.3001102805137634]}, "parameters/seq.1.weight": {"_type": "histogram", "values": [2.0, 1.0, 1.0, 0.0, 1.0, 1.0, 1.0, 1.0, 0.0, 0.0, 0.0, 0.0, 0.0, 0.0, 0.0, 0.0, 3.0, 1.0, 0.0, 2.0, 2.0, 0.0, 0.0, 1.0, 0.0, 0.0, 0.0, 1.0, 1.0, 1.0, 1.0, 2.0, 0.0, 0.0, 1.0, 0.0, 1.0, 0.0, 1.0, 0.0, 2.0, 0.0, 0.0, 0.0, 0.0, 0.0, 0.0, 1.0, 0.0, 0.0, 0.0, 0.0, 0.0, 0.0, 0.0, 0.0, 0.0, 1.0, 0.0, 0.0, 1.0, 0.0, 0.0, 1.0], "bins": [0.889028012752533, 0.8930422067642212, 0.8970564603805542, 0.9010706543922424, 0.9050848484039307, 0.9090991020202637, 0.9131132960319519, 0.9171274900436401, 0.9211416840553284, 0.9251559376716614, 0.9291701316833496, 0.9331843256950378, 0.9371985793113708, 0.9412127733230591, 0.9452269673347473, 0.9492411613464355, 0.9532554149627686, 0.9572696089744568, 0.961283802986145, 0.965298056602478, 0.9693122506141663, 0.9733264446258545, 0.9773406982421875, 0.9813548922538757, 0.985369086265564, 0.9893832802772522, 0.9933975338935852, 0.9974117279052734, 1.0014259815216064, 1.00544011592865, 1.009454369544983, 1.013468623161316, 1.0174827575683594, 1.0214970111846924, 1.0255112648010254, 1.0295253992080688, 1.0335396528244019, 1.0375537872314453, 1.0415680408477783, 1.0455822944641113, 1.0495964288711548, 1.0536106824874878, 1.0576249361038208, 1.0616390705108643, 1.0656533241271973, 1.0696675777435303, 1.0736817121505737, 1.0776959657669067, 1.0817102193832397, 1.0857243537902832, 1.0897386074066162, 1.0937528610229492, 1.0977669954299927, 1.1017812490463257, 1.1057953834533691, 1.1098096370697021, 1.1138238906860352, 1.1178380250930786, 1.1218522787094116, 1.1258665323257446, 1.129880666732788, 1.133894920349121, 1.137909173965454, 1.1419233083724976, 1.1459375619888306]}, "parameters/seq.1.bias": {"_type": "histogram", "values": [2.0, 0.0, 0.0, 0.0, 0.0, 0.0, 0.0, 0.0, 1.0, 0.0, 0.0, 0.0, 0.0, 1.0, 0.0, 0.0, 2.0, 1.0, 0.0, 0.0, 2.0, 2.0, 2.0, 0.0, 0.0, 0.0, 0.0, 0.0, 0.0, 0.0, 0.0, 0.0, 0.0, 1.0, 0.0, 0.0, 0.0, 3.0, 0.0, 1.0, 1.0, 1.0, 0.0, 1.0, 1.0, 0.0, 0.0, 1.0, 1.0, 1.0, 0.0, 0.0, 0.0, 0.0, 1.0, 0.0, 2.0, 0.0, 1.0, 0.0, 0.0, 1.0, 0.0, 2.0], "bins": [-0.0635271742939949, -0.059551652520895004, -0.055576130747795105, -0.051600612699985504, -0.047625090926885605, -0.043649569153785706, -0.039674051105976105, -0.035698529332876205, -0.031723007559776306, -0.027747485786676407, -0.023771964013576508, -0.019796445965766907, -0.015820924192667007, -0.011845402419567108, -0.007869884371757507, -0.003894362598657608, 8.115917444229126e-05, 0.004056677222251892, 0.00803220272064209, 0.01200772076845169, 0.01598324626684189, 0.01995876431465149, 0.02393428236246109, 0.027909807860851288, 0.03188532590866089, 0.03586084395647049, 0.03983636945486069, 0.04381188750267029, 0.04778740555047989, 0.05176293104887009, 0.05573844909667969, 0.059713974595069885, 0.06368950009346008, 0.06766501814126968, 0.07164054363965988, 0.07561606168746948, 0.07959158718585968, 0.08356710523366928, 0.08754262328147888, 0.09151814877986908, 0.09549366682767868, 0.09946918487548828, 0.10344471037387848, 0.10742022842168808, 0.11139574646949768, 0.11537127196788788, 0.11934679001569748, 0.12332231551408768, 0.12729783356189728, 0.13127335906028748, 0.13524886965751648, 0.13922439515590668, 0.14319992065429688, 0.14717543125152588, 0.15115095674991608, 0.15512648224830627, 0.15910199284553528, 0.16307751834392548, 0.16705304384231567, 0.17102855443954468, 0.17500407993793488, 0.17897960543632507, 0.18295513093471527, 0.18693064153194427, 0.19090616703033447]}, "parameters/seq.4.weight": {"_type": "histogram", "values": [1.0, 0.0, 0.0, 0.0, 2.0, 0.0, 2.0, 2.0, 1.0, 0.0, 6.0, 5.0, 7.0, 13.0, 12.0, 17.0, 16.0, 26.0, 34.0, 46.0, 66.0, 107.0, 127.0, 165.0, 189.0, 255.0, 331.0, 406.0, 525.0, 647.0, 722.0, 927.0, 1015.0, 1145.0, 1193.0, 1329.0, 1381.0, 1248.0, 1219.0, 975.0, 919.0, 710.0, 597.0, 472.0, 369.0, 310.0, 254.0, 161.0, 112.0, 105.0, 67.0, 54.0, 41.0, 29.0, 22.0, 16.0, 10.0, 7.0, 5.0, 4.0, 1.0, 2.0, 1.0, 2.0], "bins": [-0.23113125562667847, -0.22480449080467224, -0.21847771108150482, -0.2121509313583374, -0.20582416653633118, -0.19949740171432495, -0.19317062199115753, -0.1868438422679901, -0.1805170774459839, -0.17419031262397766, -0.16786353290081024, -0.16153675317764282, -0.1552099883556366, -0.14888322353363037, -0.14255644381046295, -0.13622966408729553, -0.1299028992652893, -0.12357612699270248, -0.11724935472011566, -0.11092258244752884, -0.10459581017494202, -0.09826904535293579, -0.09194226562976837, -0.08561548590660095, -0.07928872108459473, -0.0729619562625885, -0.06663517653942108, -0.06030839681625366, -0.053981631994247437, -0.04765486717224121, -0.04132808744907379, -0.03500130772590637, -0.02867455780506134, -0.022347792983055115, -0.016021013259887695, -0.009694233536720276, -0.0033674687147140503, 0.0029592961072921753, 0.009286075830459595, 0.015612855553627014, 0.02193962037563324, 0.028266385197639465, 0.034593164920806885, 0.040919944643974304, 0.04724670946598053, 0.05357348173856735, 0.059900254011154175, 0.066227026283741, 0.07255379855632782, 0.07888057082891464, 0.08520734310150146, 0.09153411537408829, 0.09786088764667511, 0.10418765991926193, 0.11051443219184875, 0.11684120446443558, 0.1231679767370224, 0.12949475646018982, 0.13582152128219604, 0.14214828610420227, 0.1484750658273697, 0.1548018455505371, 0.16112861037254333, 0.16745537519454956, 0.17378215491771698]}, "parameters/seq.5.weight": {"_type": "histogram", "values": [2.0, 0.0, 0.0, 0.0, 1.0, 0.0, 2.0, 1.0, 4.0, 0.0, 1.0, 1.0, 2.0, 0.0, 0.0, 1.0, 1.0, 0.0, 2.0, 3.0, 1.0, 1.0, 1.0, 2.0, 2.0, 1.0, 1.0, 1.0, 2.0, 0.0, 1.0, 2.0, 0.0, 3.0, 2.0, 1.0, 1.0, 2.0, 0.0, 2.0, 5.0, 0.0, 0.0, 1.0, 1.0, 1.0, 0.0, 1.0, 2.0, 1.0, 0.0, 0.0, 1.0, 0.0, 1.0, 0.0, 0.0, 0.0, 1.0, 1.0, 0.0, 0.0, 0.0, 1.0], "bins": [1.0710818767547607, 1.0724544525146484, 1.0738270282745361, 1.0751996040344238, 1.0765721797943115, 1.0779447555541992, 1.079317331314087, 1.0806900262832642, 1.0820626020431519, 1.0834351778030396, 1.0848077535629272, 1.086180329322815, 1.0875529050827026, 1.0889254808425903, 1.090298056602478, 1.0916706323623657, 1.0930432081222534, 1.0944157838821411, 1.0957883596420288, 1.0971609354019165, 1.0985336303710938, 1.0999062061309814, 1.1012787818908691, 1.1026513576507568, 1.1040239334106445, 1.1053965091705322, 1.10676908493042, 1.1081416606903076, 1.1095142364501953, 1.110886812210083, 1.1122593879699707, 1.1136319637298584, 1.115004539489746, 1.1163772344589233, 1.117749810218811, 1.1191223859786987, 1.1204949617385864, 1.1218675374984741, 1.1232401132583618, 1.1246126890182495, 1.1259852647781372, 1.127357840538025, 1.1287304162979126, 1.1301029920578003, 1.131475567817688, 1.1328482627868652, 1.134220838546753, 1.1355934143066406, 1.1369659900665283, 1.138338565826416, 1.1397111415863037, 1.1410837173461914, 1.142456293106079, 1.1438288688659668, 1.1452014446258545, 1.1465740203857422, 1.1479465961456299, 1.1493191719055176, 1.1506918668746948, 1.1520644426345825, 1.1534370183944702, 1.154809594154358, 1.1561821699142456, 1.1575547456741333, 1.158927321434021]}, "parameters/seq.5.bias": {"_type": "histogram", "values": [1.0, 1.0, 1.0, 0.0, 0.0, 3.0, 0.0, 4.0, 1.0, 0.0, 0.0, 3.0, 3.0, 4.0, 1.0, 2.0, 0.0, 3.0, 1.0, 0.0, 1.0, 2.0, 1.0, 1.0, 1.0, 1.0, 2.0, 1.0, 2.0, 0.0, 0.0, 4.0, 1.0, 2.0, 0.0, 1.0, 3.0, 0.0, 1.0, 0.0, 0.0, 2.0, 0.0, 0.0, 1.0, 1.0, 0.0, 0.0, 1.0, 0.0, 0.0, 1.0, 0.0, 0.0, 2.0, 0.0, 0.0, 2.0, 0.0, 1.0, 0.0, 0.0, 0.0, 1.0], "bins": [-0.16631202399730682, -0.16147060692310333, -0.15662918984889984, -0.15178777277469635, -0.14694635570049286, -0.14210493862628937, -0.13726352155208588, -0.13242211937904358, -0.1275807023048401, -0.122739277780056, -0.11789786070585251, -0.11305645108222961, -0.10821503400802612, -0.10337361693382263, -0.09853219985961914, -0.09369078278541565, -0.08884936571121216, -0.08400794863700867, -0.07916653156280518, -0.07432511448860168, -0.0694836974143982, -0.0646422877907753, -0.05980087071657181, -0.05495945364236832, -0.050118036568164825, -0.045276619493961334, -0.04043520987033844, -0.03559379279613495, -0.030752375721931458, -0.025910958647727966, -0.021069541573524475, -0.016228124499320984, -0.011386722326278687, -0.006545305252075195, -0.001703888177871704, 0.003137528896331787, 0.007978945970535278, 0.01282036304473877, 0.01766178011894226, 0.022503189742565155, 0.027344606816768646, 0.03218602389097214, 0.03702744096517563, 0.04186885803937912, 0.046710267663002014, 0.051551684737205505, 0.056393101811409, 0.06123451888561249, 0.06607593595981598, 0.07091735303401947, 0.07575877010822296, 0.08060018718242645, 0.08544160425662994, 0.09028302133083344, 0.09512443095445633, 0.09996584802865982, 0.10480726510286331, 0.1096486821770668, 0.1144900992512703, 0.11933150887489319, 0.12417292594909668, 0.12901434302330017, 0.13385576009750366, 0.13869717717170715, 0.14353859424591064]}, "parameters/seq.9.weight": {"_type": "histogram", "values": [15482.0, 15554.0, 15680.0, 15525.0, 15608.0, 15591.0, 2926.0, 37.0, 2.0, 6.0, 5.0, 15.0, 25.0, 45.0, 47.0, 109.0, 169.0, 268.0, 449.0, 696.0, 1002.0, 1500.0, 2061.0, 3077.0, 3986.0, 5366.0, 6751.0, 8516.0, 10082.0, 11840.0, 12994.0, 13982.0, 14217.0, 13961.0, 13017.0, 11645.0, 9908.0, 8219.0, 6352.0, 4758.0, 3483.0, 2389.0, 1569.0, 1074.0, 641.0, 384.0, 244.0, 119.0, 62.0, 41.0, 12.0, 12.0, 2.0, 0.0, 1.0, 0.0, 8.0, 198.0, 805.0, 882.0, 815.0, 793.0, 774.0, 699.0], "bins": [-0.21561138331890106, -0.20887377858161926, -0.20213617384433746, -0.19539856910705566, -0.18866097927093506, -0.18192335963249207, -0.17518576979637146, -0.16844816505908966, -0.16171056032180786, -0.15497295558452606, -0.14823535084724426, -0.14149776101112366, -0.13476014137268066, -0.12802255153656006, -0.12128494679927826, -0.11454734206199646, -0.10780973732471466, -0.10107213258743286, -0.09433452785015106, -0.08759692311286926, -0.08085931837558746, -0.07412172853946686, -0.06738412380218506, -0.06064651906490326, -0.05390891432762146, -0.04717130959033966, -0.04043370485305786, -0.03369610011577606, -0.026958510279655457, -0.020220905542373657, -0.013483300805091858, -0.006745696067810059, -8.07642936706543e-06, 0.006729528307914734, 0.013467133045196533, 0.020204737782478333, 0.026942342519760132, 0.03367993235588074, 0.04041753709316254, 0.047155141830444336, 0.053892746567726135, 0.060630351305007935, 0.06736795604228973, 0.07410556077957153, 0.08084315061569214, 0.08758075535297394, 0.09431836009025574, 0.10105596482753754, 0.10779356956481934, 0.11453117430210114, 0.12126877903938293, 0.12800636887550354, 0.13474398851394653, 0.14148157835006714, 0.14821918308734894, 0.15495678782463074, 0.16169439256191254, 0.16843199729919434, 0.17516960203647614, 0.18190720677375793, 0.18864479660987854, 0.19538240134716034, 0.20212000608444214, 0.20885761082172394, 0.21559521555900574]}, "parameters/seq.9.bias": {"_type": "histogram", "values": [7.0, 6.0, 4.0, 3.0, 5.0, 6.0, 5.0, 7.0, 1.0, 0.0, 0.0, 0.0, 0.0, 0.0, 0.0, 0.0, 0.0, 0.0, 0.0, 0.0, 0.0, 0.0, 0.0, 0.0, 0.0, 0.0, 0.0, 1.0, 1.0, 0.0, 1.0, 0.0, 3.0, 1.0, 4.0, 2.0, 2.0, 3.0, 2.0, 0.0, 3.0, 5.0, 7.0, 4.0, 3.0, 2.0, 3.0, 2.0, 4.0, 1.0, 1.0, 0.0, 3.0, 1.0, 3.0, 2.0, 3.0, 3.0, 0.0, 1.0, 0.0, 2.0, 2.0, 1.0], "bins": [-0.21503795683383942, -0.2102241814136505, -0.2054104059934616, -0.2005966156721115, -0.1957828402519226, -0.1909690648317337, -0.1861552894115448, -0.1813415139913559, -0.176527738571167, -0.1717139482498169, -0.166900172829628, -0.1620863974094391, -0.15727262198925018, -0.15245884656906128, -0.14764505624771118, -0.14283128082752228, -0.13801750540733337, -0.13320372998714447, -0.12838995456695557, -0.12357617169618607, -0.11876238882541656, -0.11394861340522766, -0.10913483798503876, -0.10432105511426926, -0.09950727969408035, -0.09469350427389145, -0.08987972140312195, -0.08506594598293304, -0.08025217056274414, -0.07543839514255524, -0.07062460482120514, -0.06581082940101624, -0.060997068881988525, -0.05618329346179962, -0.05136951804161072, -0.04655572772026062, -0.041741952300071716, -0.03692817687988281, -0.03211440145969391, -0.027300618588924408, -0.022486843168735504, -0.0176730677485466, -0.0128592848777771, -0.008045509457588196, -0.003231734037399292, 0.0015820488333702087, 0.0063958242535591125, 0.011209607124328613, 0.016023382544517517, 0.02083715796470642, 0.02565094083547592, 0.030464716255664825, 0.03527849540114403, 0.04009227454662323, 0.044906049966812134, 0.049719829112291336, 0.05453360825777054, 0.05934738740324974, 0.06416116654872894, 0.06897494196891785, 0.07378871738910675, 0.07860250025987625, 0.08341627568006516, 0.08823005855083466, 0.09304383397102356]}, "parameters/seq.11.weight": {"_type": "histogram", "values": [146.0, 180.0, 169.0, 161.0, 196.0, 180.0, 177.0, 176.0, 211.0, 161.0, 203.0, 206.0, 206.0, 216.0, 228.0, 258.0, 236.0, 239.0, 256.0, 268.0, 196.0, 127.0, 139.0, 130.0, 146.0, 151.0, 156.0, 153.0, 153.0, 160.0, 184.0, 152.0, 154.0, 180.0, 178.0, 169.0, 158.0, 174.0, 175.0, 164.0, 145.0, 154.0, 173.0, 174.0, 205.0, 168.0, 164.0, 137.0, 163.0, 141.0, 122.0, 111.0, 103.0, 97.0, 93.0, 86.0, 82.0, 87.0, 65.0, 75.0, 75.0, 70.0, 59.0, 59.0], "bins": [-0.2859232425689697, -0.27699753642082214, -0.2680718004703522, -0.2591460943222046, -0.2502203583717346, -0.24129465222358704, -0.23236894607543945, -0.22344322502613068, -0.2145175039768219, -0.20559178292751312, -0.19666606187820435, -0.18774035573005676, -0.17881463468074799, -0.1698889136314392, -0.16096320748329163, -0.15203748643398285, -0.14311176538467407, -0.1341860443353653, -0.12526032328605652, -0.11633461713790894, -0.10740889608860016, -0.09848317503929138, -0.0895574688911438, -0.08063174784183502, -0.07170602679252625, -0.06278030574321747, -0.05385458469390869, -0.04492887854576111, -0.03600315749645233, -0.027077436447143555, -0.01815173029899597, -0.009225994348526001, -0.0003002583980560303, 0.008625447750091553, 0.017551183700561523, 0.026476889848709106, 0.03540261089801788, 0.04432833194732666, 0.05325403809547424, 0.06217975914478302, 0.0711054801940918, 0.08003120124340057, 0.08895692229270935, 0.09788262844085693, 0.10680834949016571, 0.11573407053947449, 0.12465977668762207, 0.13358549773693085, 0.14251121878623962, 0.1514369398355484, 0.16036266088485718, 0.16928836703300476, 0.17821408808231354, 0.18713980913162231, 0.1960655152797699, 0.20499123632907867, 0.21391695737838745, 0.22284267842769623, 0.231768399477005, 0.2406941056251526, 0.24961982667446136, 0.25854554772377014, 0.2674712538719177, 0.2763969898223877, 0.2853226959705353]}, "parameters/seq.11.bias": {"_type": "histogram", "values": [2.0, 0.0, 1.0, 0.0, 1.0, 1.0, 0.0, 0.0, 3.0, 1.0, 1.0, 0.0, 1.0, 1.0, 1.0, 2.0, 1.0, 1.0, 2.0, 1.0, 2.0, 1.0, 1.0, 0.0, 4.0, 1.0, 5.0, 1.0, 2.0, 2.0, 1.0, 3.0, 1.0, 4.0, 1.0, 3.0, 1.0, 1.0, 2.0, 4.0, 3.0, 0.0, 2.0, 2.0, 1.0, 1.0, 1.0, 1.0, 2.0, 0.0, 2.0, 0.0, 2.0, 2.0, 0.0, 2.0, 1.0, 0.0, 0.0, 0.0, 0.0, 0.0, 1.0, 1.0], "bins": [-0.27267417311668396, -0.26529988646507263, -0.2579255998134613, -0.25055131316185, -0.24317701160907745, -0.23580272495746613, -0.2284284383058548, -0.22105413675308228, -0.21367985010147095, -0.20630556344985962, -0.1989312767982483, -0.19155699014663696, -0.18418270349502563, -0.1768084019422531, -0.16943411529064178, -0.16205981373786926, -0.15468552708625793, -0.1473112404346466, -0.13993695378303528, -0.13256266713142395, -0.12518838047981262, -0.1178140789270401, -0.11043979227542877, -0.10306550562381744, -0.09569121897220612, -0.08831693232059479, -0.08094263076782227, -0.07356834411621094, -0.06619405746459961, -0.05881977081298828, -0.05144546926021576, -0.04407118260860443, -0.0366968959569931, -0.029322609305381775, -0.021948322653770447, -0.014574021100997925, -0.007199734449386597, 0.00017455220222473145, 0.00754883885383606, 0.014923140406608582, 0.02229742705821991, 0.029671713709831238, 0.037046000361442566, 0.044420287013053894, 0.051794588565826416, 0.059168875217437744, 0.06654316186904907, 0.0739174485206604, 0.08129174262285233, 0.08866602927446365, 0.09604032337665558, 0.1034146100282669, 0.11078890413045883, 0.11816319078207016, 0.12553748488426208, 0.1329117715358734, 0.14028605818748474, 0.14766034483909607, 0.1550346463918686, 0.16240893304347992, 0.16978321969509125, 0.17715750634670258, 0.1845318078994751, 0.19190609455108643, 0.19928038120269775]}, "parameters/seq.13.weight": {"_type": "histogram", "values": [2.0, 5.0, 5.0, 6.0, 13.0, 13.0, 13.0, 14.0, 12.0, 10.0, 10.0, 12.0, 14.0, 19.0, 23.0, 23.0, 18.0, 18.0, 13.0, 18.0, 18.0, 16.0, 22.0, 15.0, 12.0, 8.0, 16.0, 14.0, 19.0, 11.0, 12.0, 12.0, 16.0, 16.0, 9.0, 13.0, 12.0, 14.0, 19.0, 23.0, 18.0, 15.0, 12.0, 13.0, 15.0, 12.0, 16.0, 12.0, 24.0, 15.0, 14.0, 14.0, 11.0, 15.0, 12.0, 12.0, 12.0, 7.0, 5.0, 12.0, 5.0, 6.0, 4.0, 1.0], "bins": [-0.30237844586372375, -0.2929743826389313, -0.2835702896118164, -0.2741662263870239, -0.26476213335990906, -0.2553580701351166, -0.2459539920091629, -0.23654991388320923, -0.22714583575725555, -0.21774175763130188, -0.2083376795053482, -0.19893360137939453, -0.18952953815460205, -0.18012544512748718, -0.1707213819026947, -0.16131730377674103, -0.15191322565078735, -0.14250914752483368, -0.13310506939888, -0.12370099127292633, -0.11429691314697266, -0.10489284992218018, -0.0954887717962265, -0.08608469367027283, -0.07668061554431915, -0.06727653741836548, -0.057872459292411804, -0.04846838116645813, -0.03906431794166565, -0.02966022491455078, -0.0202561616897583, -0.010852068662643433, -0.0014479756355285645, 0.007956087589263916, 0.017360180616378784, 0.026764243841171265, 0.03616833686828613, 0.04557240009307861, 0.05497647821903229, 0.06438055634498596, 0.07378463447093964, 0.08318871259689331, 0.09259279072284698, 0.10199686884880066, 0.11140093207359314, 0.12080501019954681, 0.1302090883255005, 0.13961316645145416, 0.14901724457740784, 0.1584213227033615, 0.16782540082931519, 0.17722946405410767, 0.18663355708122253, 0.19603762030601501, 0.2054416984319687, 0.21484577655792236, 0.22424985468387604, 0.2336539328098297, 0.2430580109357834, 0.25246208906173706, 0.26186615228652954, 0.2712702453136444, 0.2806743085384369, 0.29007840156555176, 0.29948246479034424]}, "parameters/seq.13.bias": {"_type": "histogram", "values": [1.0, 0.0, 0.0, 0.0, 0.0, 0.0, 0.0, 1.0, 0.0, 0.0, 0.0, 0.0, 2.0, 0.0, 0.0, 0.0, 0.0, 0.0, 0.0, 0.0, 0.0, 1.0, 0.0, 1.0, 0.0, 0.0, 0.0, 0.0, 0.0, 0.0, 0.0, 0.0, 0.0, 1.0, 0.0, 0.0, 0.0, 0.0, 0.0, 0.0, 0.0, 0.0, 0.0, 0.0, 1.0, 0.0, 0.0, 1.0, 0.0, 0.0, 0.0, 0.0, 0.0, 0.0, 0.0, 0.0, 0.0, 0.0, 0.0, 0.0, 0.0, 0.0, 0.0, 1.0], "bins": [-0.1052166298031807, -0.10138502717018127, -0.09755341708660126, -0.09372181445360184, -0.08989021182060242, -0.086058609187603, -0.08222700655460358, -0.07839539647102356, -0.07456379383802414, -0.07073219120502472, -0.0669005811214447, -0.06306897848844528, -0.05923737585544586, -0.05540577322244644, -0.05157416686415672, -0.047742560505867004, -0.043910957872867584, -0.040079355239868164, -0.036247752606868744, -0.03241614252328873, -0.028584539890289307, -0.024752937257289886, -0.02092132717370987, -0.01708972454071045, -0.013258121907711029, -0.009426519274711609, -0.005594916641712189, -0.0017633065581321716, 0.0020682960748672485, 0.005899898707866669, 0.009731508791446686, 0.013563111424446106, 0.01739470660686493, 0.02122630923986435, 0.02505791187286377, 0.028889521956443787, 0.03272112458944321, 0.03655272722244263, 0.040384337306022644, 0.044215939939022064, 0.048047542572021484, 0.051879145205020905, 0.055710747838020325, 0.05954235792160034, 0.06337396055459976, 0.06720556318759918, 0.0710371732711792, 0.07486877590417862, 0.07870037853717804, 0.08253198117017746, 0.08636358380317688, 0.0901951938867569, 0.09402679651975632, 0.09785839915275574, 0.10169000923633575, 0.10552161186933517, 0.1093532145023346, 0.11318481713533401, 0.11701641976833344, 0.12084802985191345, 0.12467963248491287, 0.1285112351179123, 0.1323428452014923, 0.13617444038391113, 0.14000605046749115]}, "gradients/seq.13.weight": {"_type": "histogram", "values": [1.0, 0.0, 0.0, 0.0, 0.0, 0.0, 1.0, 0.0, 0.0, 1.0, 2.0, 1.0, 2.0, 0.0, 2.0, 2.0, 3.0, 1.0, 3.0, 5.0, 7.0, 9.0, 3.0, 7.0, 11.0, 10.0, 13.0, 13.0, 20.0, 28.0, 35.0, 85.0, 391.0, 47.0, 22.0, 17.0, 11.0, 6.0, 10.0, 10.0, 6.0, 10.0, 6.0, 6.0, 4.0, 4.0, 5.0, 0.0, 5.0, 1.0, 2.0, 2.0, 0.0, 3.0, 0.0, 1.0, 1.0, 1.0, 2.0, 0.0, 0.0, 0.0, 1.0, 1.0], "bins": [-0.2690863013267517, -0.26075315475463867, -0.25242000818252563, -0.2440868467092514, -0.23575368523597717, -0.22742053866386414, -0.2190873920917511, -0.21075424551963806, -0.20242108404636383, -0.1940879225730896, -0.18575477600097656, -0.17742162942886353, -0.1690884828567505, -0.16075532138347626, -0.15242217481136322, -0.144089013338089, -0.13575586676597595, -0.12742272019386292, -0.11908955872058868, -0.11075641214847565, -0.10242325067520142, -0.09409010410308838, -0.08575695753097534, -0.07742379605770111, -0.06909064948558807, -0.06075750291347504, -0.052424341440200806, -0.04409119486808777, -0.03575804829597473, -0.0274248868227005, -0.019091740250587463, -0.010758578777313232, -0.0024254322052001953, 0.005907714366912842, 0.014240875840187073, 0.02257402241230011, 0.03090718388557434, 0.03924033045768738, 0.047573477029800415, 0.055906638503074646, 0.06423978507518768, 0.07257293164730072, 0.08090609312057495, 0.08923923969268799, 0.09757238626480103, 0.10590554773807526, 0.1142386943101883, 0.12257185578346252, 0.13090500235557556, 0.1392381489276886, 0.14757131040096283, 0.15590445697307587, 0.1642376184463501, 0.17257076501846313, 0.18090391159057617, 0.1892370581626892, 0.19757021963596344, 0.20590338110923767, 0.2142365276813507, 0.22256967425346375, 0.23090282082557678, 0.239235982298851, 0.24756912887096405, 0.2559022903442383, 0.2642354369163513]}, "gradients/seq.13.bias": {"_type": "histogram", "values": [1.0, 0.0, 0.0, 0.0, 0.0, 0.0, 0.0, 0.0, 1.0, 0.0, 0.0, 0.0, 0.0, 0.0, 0.0, 0.0, 0.0, 0.0, 0.0, 1.0, 0.0, 0.0, 1.0, 0.0, 0.0, 1.0, 0.0, 0.0, 0.0, 1.0, 0.0, 0.0, 0.0, 0.0, 0.0, 1.0, 0.0, 0.0, 0.0, 0.0, 0.0, 0.0, 0.0, 0.0, 0.0, 0.0, 1.0, 0.0, 1.0, 0.0, 0.0, 0.0, 0.0, 0.0, 0.0, 0.0, 0.0, 0.0, 0.0, 0.0, 0.0, 0.0, 0.0, 1.0], "bins": [-0.04399356245994568, -0.042522773146629333, -0.04105198383331299, -0.03958119451999664, -0.038110408931970596, -0.03663961961865425, -0.035168830305337906, -0.03369804099202156, -0.032227255403995514, -0.03075646609067917, -0.029285676777362823, -0.02781488746404648, -0.026344098150730133, -0.024873310700058937, -0.023402521386742592, -0.021931733936071396, -0.02046094462275505, -0.018990155309438705, -0.01751936785876751, -0.016048578545451164, -0.014577791094779968, -0.013107001781463623, -0.011636212468147278, -0.010165423154830933, -0.008694633841514587, -0.007223848253488541, -0.0057530589401721954, -0.00428226962685585, -0.002811480313539505, -0.0013406910002231598, 0.00013009458780288696, 0.0016008839011192322, 0.003071676939725876, 0.004542466253042221, 0.006013255566358566, 0.007484041154384613, 0.008954830467700958, 0.010425619781017303, 0.011896409094333649, 0.013367198407649994, 0.01483798399567604, 0.016308773308992386, 0.01777956262230873, 0.019250351935625076, 0.02072114124894142, 0.022191928699612617, 0.023662718012928963, 0.02513350546360016, 0.026604294776916504, 0.02807508409023285, 0.029545871540904045, 0.03101666085422039, 0.032487448304891586, 0.03395823761820793, 0.03542902693152428, 0.03689981624484062, 0.03837060183286667, 0.039841391146183014, 0.04131218045949936, 0.042782969772815704, 0.04425375908613205, 0.045724548399448395, 0.04719533398747444, 0.04866612330079079, 0.05013691261410713]}, "gradients/seq.11.weight": {"_type": "histogram", "values": [1.0, 0.0, 1.0, 0.0, 0.0, 0.0, 0.0, 0.0, 0.0, 2.0, 1.0, 2.0, 1.0, 1.0, 3.0, 2.0, 1.0, 3.0, 2.0, 4.0, 6.0, 7.0, 9.0, 8.0, 19.0, 15.0, 24.0, 42.0, 50.0, 68.0, 145.0, 209.0, 311.0, 831.0, 7268.0, 388.0, 172.0, 134.0, 78.0, 63.0, 52.0, 28.0, 25.0, 25.0, 15.0, 9.0, 11.0, 6.0, 6.0, 5.0, 5.0, 4.0, 3.0, 1.0, 1.0, 4.0, 5.0, 0.0, 0.0, 0.0, 0.0, 1.0, 1.0, 2.0], "bins": [-0.30171310901641846, -0.2929309010505676, -0.2841487228870392, -0.27536651492118835, -0.2665843069553375, -0.2578021287918091, -0.24901992082595825, -0.24023771286010742, -0.23145551979541779, -0.22267332673072815, -0.21389111876487732, -0.20510892570018768, -0.19632673263549805, -0.18754452466964722, -0.17876233160495758, -0.16998012363910675, -0.16119793057441711, -0.15241573750972748, -0.14363352954387665, -0.134851336479187, -0.12606912851333618, -0.11728693544864655, -0.10850474238395691, -0.09972253441810608, -0.09094034135341644, -0.0821581482887268, -0.07337594032287598, -0.06459374725818634, -0.055811554193496704, -0.047029346227645874, -0.038247138261795044, -0.0294649600982666, -0.020682722330093384, -0.011900514364242554, -0.0031183362007141113, 0.005663871765136719, 0.014446079730987549, 0.023228272795677185, 0.03201046586036682, 0.04079267382621765, 0.04957486689090729, 0.058357059955596924, 0.06713926792144775, 0.07592146098613739, 0.08470365405082703, 0.09348586201667786, 0.10226805508136749, 0.11105026304721832, 0.11983245611190796, 0.1286146491765976, 0.13739685714244843, 0.14617905020713806, 0.1549612581729889, 0.16374345123767853, 0.17252564430236816, 0.181307852268219, 0.19009004533290863, 0.19887223839759827, 0.2076544463634491, 0.21643663942813873, 0.22521883249282837, 0.2340010404586792, 0.24278323352336884, 0.25156542658805847, 0.2603476345539093]}, "gradients/seq.11.bias": {"_type": "histogram", "values": [1.0, 0.0, 0.0, 0.0, 0.0, 0.0, 0.0, 0.0, 0.0, 1.0, 1.0, 1.0, 0.0, 0.0, 1.0, 1.0, 0.0, 0.0, 0.0, 0.0, 1.0, 1.0, 2.0, 3.0, 1.0, 2.0, 1.0, 2.0, 4.0, 3.0, 4.0, 3.0, 1.0, 2.0, 24.0, 0.0, 1.0, 3.0, 0.0, 2.0, 2.0, 1.0, 0.0, 0.0, 2.0, 1.0, 1.0, 0.0, 1.0, 0.0, 2.0, 1.0, 0.0, 1.0, 0.0, 1.0, 2.0, 0.0, 0.0, 1.0, 0.0, 0.0, 0.0, 2.0], "bins": [-0.022855134680867195, -0.02219056524336338, -0.021525997668504715, -0.0208614282310009, -0.020196858793497086, -0.01953229121863842, -0.018867721781134605, -0.01820315420627594, -0.017538584768772125, -0.01687401533126831, -0.016209447756409645, -0.01554487831890583, -0.01488030981272459, -0.01421574130654335, -0.013551171869039536, -0.012886603362858295, -0.012222034856677055, -0.011557466350495815, -0.010892897844314575, -0.01022832840681076, -0.00956375990062952, -0.00889919139444828, -0.008234621956944466, -0.0075700534507632256, -0.0069054849445819855, -0.006240915507078171, -0.005576347932219505, -0.004911778494715691, -0.004247209057211876, -0.0035826414823532104, -0.0029180720448493958, -0.0022535044699907303, -0.0015889368951320648, -0.0009243674576282501, -0.00025979988276958466, 0.00040476955473423004, 0.0010693371295928955, 0.0017339065670967102, 0.002398476004600525, 0.0030630435794591904, 0.003727613016963005, 0.004392181523144245, 0.005056750029325485, 0.0057213194668293, 0.00638588797301054, 0.00705045647919178, 0.007715025916695595, 0.008379594422876835, 0.009044162929058075, 0.009708731435239315, 0.010373299941420555, 0.01103786937892437, 0.01170243788510561, 0.01236700639128685, 0.013031575828790665, 0.013696144334971905, 0.014360712841153145, 0.015025281347334385, 0.015689849853515625, 0.01635441929101944, 0.017018988728523254, 0.01768355630338192, 0.018348125740885735, 0.0190126933157444, 0.019677262753248215]}, "gradients/seq.9.weight": {"_type": "histogram", "values": [5.0, 11.0, 18.0, 24.0, 34.0, 64.0, 74.0, 55.0, 51.0, 88.0, 130.0, 188.0, 212.0, 356.0, 499.0, 681.0, 1047.0, 1637.0, 2855.0, 4925.0, 8786.0, 15947.0, 29160.0, 45769.0, 130864.0, 12176.0, 6188.0, 3711.0, 2512.0, 1910.0, 1598.0, 1179.0, 832.0, 594.0, 407.0, 330.0, 274.0, 204.0, 147.0, 106.0, 93.0, 97.0, 88.0, 92.0, 101.0, 69.0, 44.0, 24.0, 18.0, 18.0, 25.0, 30.0, 40.0, 22.0, 17.0, 9.0, 15.0, 15.0, 5.0, 4.0, 0.0, 1.0, 2.0, 3.0], "bins": [-0.035881318151950836, -0.03438965603709221, -0.03289799392223358, -0.031406328082084656, -0.02991466596722603, -0.0284230038523674, -0.026931339874863625, -0.025439675897359848, -0.02394801378250122, -0.022456351667642593, -0.020964687690138817, -0.01947302371263504, -0.017981361597776413, -0.016489699482917786, -0.014998035505414009, -0.013506371527910233, -0.012014709413051605, -0.010523047298192978, -0.009031383320689201, -0.007539719343185425, -0.0060480572283267975, -0.00455639511346817, -0.0030647292733192444, -0.001573067158460617, -8.140504360198975e-05, 0.0014102570712566376, 0.002901919186115265, 0.004393585026264191, 0.005885247141122818, 0.007376909255981445, 0.008868575096130371, 0.010360237210988998, 0.011851903051137924, 0.013343565165996552, 0.014835227280855179, 0.016326893121004105, 0.017818555235862732, 0.01931021735072136, 0.020801883190870285, 0.022293545305728912, 0.02378520742058754, 0.025276869535446167, 0.026768531650304794, 0.02826019749045372, 0.029751859605312347, 0.031243521720170975, 0.0327351838350296, 0.03422684967517853, 0.035718511790037155, 0.03721017390489578, 0.03870183974504471, 0.040193501859903336, 0.04168516397476196, 0.04317682608962059, 0.04466848820447922, 0.04616015404462814, 0.04765181615948677, 0.0491434782743454, 0.050635144114494324, 0.05212680622935295, 0.05361846834421158, 0.055110130459070206, 0.05660179257392883, 0.05809345841407776, 0.059585120528936386]}, "gradients/seq.9.bias": {"_type": "histogram", "values": [1.0, 1.0, 1.0, 0.0, 0.0, 1.0, 0.0, 0.0, 0.0, 3.0, 0.0, 2.0, 3.0, 4.0, 2.0, 0.0, 2.0, 1.0, 1.0, 0.0, 9.0, 2.0, 4.0, 9.0, 1.0, 3.0, 2.0, 45.0, 2.0, 2.0, 1.0, 1.0, 3.0, 1.0, 2.0, 0.0, 1.0, 3.0, 0.0, 0.0, 0.0, 0.0, 0.0, 0.0, 0.0, 0.0, 1.0, 0.0, 0.0, 0.0, 0.0, 0.0, 0.0, 0.0, 0.0, 1.0, 1.0, 0.0, 2.0, 1.0, 0.0, 0.0, 0.0, 1.0], "bins": [-0.014956792816519737, -0.014403104782104492, -0.013849416747689247, -0.013295728713274002, -0.012742040678858757, -0.012188352644443512, -0.011634663678705692, -0.011080975644290447, -0.010527287609875202, -0.009973599575459957, -0.009419911541044712, -0.008866222575306892, -0.008312534540891647, -0.00775884697213769, -0.007205158472061157, -0.006651470437645912, -0.006097782403230667, -0.005544094368815422, -0.004990406334400177, -0.004436718299984932, -0.003883030265569687, -0.0033293412998318672, -0.002775653265416622, -0.002221965231001377, -0.001668277196586132, -0.001114589162170887, -0.0005609011277556419, -7.213093340396881e-06, 0.0005464758723974228, 0.0011001639068126678, 0.001653851941227913, 0.002207539975643158, 0.002761226147413254, 0.003314914181828499, 0.003868602216243744, 0.004422290250658989, 0.004975978285074234, 0.005529667250812054, 0.006083355285227299, 0.006637043319642544, 0.007190731354057789, 0.007744419388473034, 0.008298107422888279, 0.008851795457303524, 0.009405484423041344, 0.009959172457456589, 0.010512860491871834, 0.011066548526287079, 0.011620236560702324, 0.012173924595117569, 0.012727612629532814, 0.013281300663948059, 0.013834988698363304, 0.01438867673277855, 0.014942365698516369, 0.015496053732931614, 0.016049742698669434, 0.01660342887043953, 0.017157118767499924, 0.01771080680191517, 0.018264494836330414, 0.01881818287074566, 0.019371870905160904, 0.01992555893957615, 0.020479246973991394]}, "gradients/seq.5.weight": {"_type": "histogram", "values": [1.0, 0.0, 1.0, 0.0, 1.0, 0.0, 1.0, 0.0, 2.0, 2.0, 1.0, 2.0, 3.0, 3.0, 2.0, 5.0, 5.0, 3.0, 2.0, 3.0, 6.0, 1.0, 2.0, 2.0, 2.0, 1.0, 0.0, 1.0, 0.0, 2.0, 2.0, 1.0, 3.0, 1.0, 1.0, 0.0, 0.0, 0.0, 0.0, 0.0, 0.0, 0.0, 1.0, 0.0, 0.0, 0.0, 0.0, 0.0, 0.0, 0.0, 0.0, 0.0, 0.0, 0.0, 0.0, 0.0, 0.0, 0.0, 0.0, 0.0, 0.0, 0.0, 0.0, 1.0], "bins": [-0.09428291767835617, -0.0894964188337326, -0.08470992743968964, -0.07992342859506607, -0.0751369297504425, -0.07035043835639954, -0.06556393951177597, -0.0607774443924427, -0.055990949273109436, -0.05120445415377617, -0.0464179590344429, -0.041631460189819336, -0.03684496507048607, -0.0320584699511528, -0.027271971106529236, -0.022485479712486267, -0.0176989808678627, -0.012912482023239136, -0.008125990629196167, -0.0033394917845726013, 0.0014469996094703674, 0.006233498454093933, 0.011019997298717499, 0.015806488692760468, 0.020592987537384033, 0.0253794863820076, 0.030165977776050568, 0.034952469170093536, 0.0397389754652977, 0.04452546685934067, 0.049311958253383636, 0.0540984645485878, 0.058884963393211365, 0.06367145478725433, 0.0684579610824585, 0.07324445247650146, 0.07803094387054443, 0.0828174501657486, 0.08760394155979156, 0.09239043295383453, 0.0971769317984581, 0.10196343064308167, 0.10674992203712463, 0.1115364208817482, 0.11632291972637177, 0.12110941112041473, 0.1258959174156189, 0.13068240880966187, 0.13546890020370483, 0.1402553915977478, 0.14504188299179077, 0.14982838928699493, 0.1546148806810379, 0.15940138697624207, 0.16418787837028503, 0.168974369764328, 0.17376086115837097, 0.17854736745357513, 0.1833338588476181, 0.18812036514282227, 0.19290685653686523, 0.1976933479309082, 0.20247983932495117, 0.20726634562015533, 0.2120528370141983]}, "gradients/seq.5.bias": {"_type": "histogram", "values": [2.0, 0.0, 0.0, 1.0, 0.0, 0.0, 0.0, 0.0, 0.0, 0.0, 1.0, 0.0, 1.0, 0.0, 1.0, 3.0, 0.0, 1.0, 1.0, 0.0, 0.0, 1.0, 2.0, 4.0, 0.0, 0.0, 2.0, 4.0, 2.0, 3.0, 2.0, 0.0, 1.0, 2.0, 1.0, 2.0, 2.0, 0.0, 1.0, 4.0, 2.0, 0.0, 0.0, 3.0, 1.0, 0.0, 1.0, 1.0, 0.0, 3.0, 1.0, 1.0, 1.0, 0.0, 1.0, 2.0, 1.0, 0.0, 0.0, 0.0, 1.0, 0.0, 0.0, 1.0], "bins": [-0.11560073494911194, -0.11213797330856323, -0.10867521166801453, -0.10521245002746582, -0.10174968093633652, -0.09828691929578781, -0.0948241576552391, -0.0913613960146904, -0.0878986343741417, -0.08443586528301239, -0.08097310364246368, -0.07751034200191498, -0.07404758036136627, -0.07058481872081757, -0.06712205708026886, -0.06365929543972015, -0.06019653007388115, -0.05673376843333244, -0.05327100306749344, -0.04980824142694473, -0.04634547978639603, -0.04288271814584732, -0.039419956505298615, -0.03595718741416931, -0.032494425773620605, -0.0290316641330719, -0.025568902492523193, -0.022106140851974487, -0.01864337921142578, -0.015180610120296478, -0.011717848479747772, -0.008255086839199066, -0.00479232519865036, -0.001329563558101654, 0.002133198082447052, 0.005595959722995758, 0.009058728814125061, 0.012521490454673767, 0.015984252095222473, 0.01944701373577118, 0.022909775376319885, 0.02637253701686859, 0.029835306107997894, 0.0332980677485466, 0.036760829389095306, 0.04022359102964401, 0.04368635267019272, 0.04714911803603172, 0.05061187967658043, 0.054074641317129135, 0.05753740668296814, 0.061000168323516846, 0.06446292996406555, 0.06792569160461426, 0.07138845324516296, 0.07485121488571167, 0.07831398397684097, 0.08177674561738968, 0.08523950725793839, 0.08870226889848709, 0.0921650305390358, 0.0956277996301651, 0.0990905612707138, 0.10255332291126251, 0.10601608455181122]}, "gradients/seq.4.weight": {"_type": "histogram", "values": [3.0, 2.0, 8.0, 8.0, 5.0, 1.0, 7.0, 12.0, 12.0, 12.0, 10.0, 5.0, 2.0, 5.0, 7.0, 20.0, 32.0, 28.0, 19.0, 51.0, 32.0, 60.0, 87.0, 103.0, 131.0, 181.0, 253.0, 364.0, 488.0, 649.0, 1024.0, 1655.0, 2871.0, 2618.0, 1787.0, 1382.0, 1016.0, 762.0, 572.0, 500.0, 479.0, 303.0, 127.0, 122.0, 127.0, 72.0, 42.0, 59.0, 35.0, 41.0, 26.0, 41.0, 24.0, 22.0, 19.0, 20.0, 13.0, 15.0, 13.0, 13.0, 13.0, 11.0, 5.0, 6.0], "bins": [-0.27089959383010864, -0.26288333535194397, -0.2548670768737793, -0.24685081839561462, -0.23883455991744995, -0.23081830143928528, -0.2228020280599594, -0.21478576958179474, -0.20676951110363007, -0.1987532526254654, -0.19073699414730072, -0.18272072076797485, -0.17470446228981018, -0.1666882038116455, -0.15867194533348083, -0.15065568685531616, -0.1426394283771515, -0.13462316989898682, -0.12660691142082214, -0.11859065294265747, -0.1105743944644928, -0.10255812108516693, -0.09454186260700226, -0.08652560412883759, -0.07850934565067291, -0.07049308717250824, -0.06247682869434357, -0.054460570216178894, -0.04644429683685303, -0.038428038358688354, -0.03041177988052368, -0.02239552140235901, -0.014379233121871948, -0.006362974643707275, 0.0016532838344573975, 0.00966954231262207, 0.017685800790786743, 0.02570207417011261, 0.03371833264827728, 0.041734591126441956, 0.04975084960460663, 0.0577671080827713, 0.06578336656093597, 0.07379962503910065, 0.08181589841842651, 0.08983215689659119, 0.09784841537475586, 0.10586467385292053, 0.1138809323310852, 0.12189719080924988, 0.12991344928741455, 0.13792970776557922, 0.1459459662437439, 0.15396222472190857, 0.16197849810123444, 0.1699947565793991, 0.17801101505756378, 0.18602727353572845, 0.19404353201389313, 0.202059805393219, 0.21007606387138367, 0.21809232234954834, 0.226108580827713, 0.23412483930587769, 0.24214109778404236]}, "gradients/seq.1.weight": {"_type": "histogram", "values": [1.0, 0.0, 0.0, 1.0, 0.0, 0.0, 0.0, 0.0, 1.0, 2.0, 3.0, 2.0, 2.0, 3.0, 2.0, 3.0, 1.0, 0.0, 1.0, 0.0, 3.0, 0.0, 1.0, 1.0, 1.0, 0.0, 0.0, 0.0, 0.0, 0.0, 1.0, 1.0, 0.0, 0.0, 1.0, 0.0, 0.0, 0.0, 0.0, 0.0, 0.0, 0.0, 0.0, 0.0, 0.0, 0.0, 0.0, 0.0, 0.0, 0.0, 0.0, 0.0, 0.0, 0.0, 0.0, 0.0, 0.0, 0.0, 0.0, 0.0, 0.0, 0.0, 0.0, 1.0], "bins": [-0.10103552043437958, -0.0941237285733223, -0.08721192926168442, -0.08030013740062714, -0.07338833808898926, -0.06647654622793198, -0.059564754366874695, -0.052652958780527115, -0.045741163194179535, -0.038829367607831955, -0.031917572021484375, -0.025005780160427094, -0.018093988299369812, -0.011182188987731934, -0.004270397126674652, 0.0026414021849632263, 0.009553194046020508, 0.01646498590707779, 0.023376785218715668, 0.03028857707977295, 0.03720037639141083, 0.04411216080188751, 0.05102396011352539, 0.05793575942516327, 0.06484754383563995, 0.07175934314727783, 0.07867114245891571, 0.08558294177055359, 0.09249472618103027, 0.09940652549266815, 0.10631832480430603, 0.11323010921478271, 0.1201418936252594, 0.12705369293689728, 0.13396547734737396, 0.14087727665901184, 0.14778907597064972, 0.1547008603811264, 0.16161265969276428, 0.16852445900440216, 0.17543625831604004, 0.18234804272651672, 0.1892598420381546, 0.19617164134979248, 0.20308342576026917, 0.20999522507190704, 0.21690702438354492, 0.2238188087940216, 0.23073060810565948, 0.23764240741729736, 0.24455419182777405, 0.25146597623825073, 0.2583777904510498, 0.2652895748615265, 0.2722013592720032, 0.27911317348480225, 0.28602495789527893, 0.292936772108078, 0.2998485565185547, 0.30676034092903137, 0.31367215514183044, 0.32058393955230713, 0.3274957239627838, 0.3344075381755829, 0.34131932258605957]}, "gradients/seq.1.bias": {"_type": "histogram", "values": [1.0, 0.0, 0.0, 0.0, 0.0, 0.0, 0.0, 0.0, 0.0, 0.0, 1.0, 0.0, 0.0, 0.0, 0.0, 0.0, 1.0, 1.0, 1.0, 2.0, 3.0, 0.0, 1.0, 0.0, 3.0, 1.0, 1.0, 2.0, 1.0, 2.0, 1.0, 0.0, 1.0, 1.0, 0.0, 1.0, 0.0, 0.0, 1.0, 0.0, 1.0, 1.0, 1.0, 0.0, 1.0, 0.0, 0.0, 0.0, 0.0, 1.0, 0.0, 0.0, 0.0, 0.0, 0.0, 0.0, 0.0, 0.0, 0.0, 0.0, 0.0, 0.0, 0.0, 1.0], "bins": [-0.12313751131296158, -0.1181529238820076, -0.11316832900047302, -0.10818374156951904, -0.10319915413856506, -0.09821456670761108, -0.0932299792766571, -0.08824538439512253, -0.08326079696416855, -0.07827620953321457, -0.07329161465167999, -0.06830702722072601, -0.06332243978977203, -0.058337852358818054, -0.05335325747728348, -0.0483686700463295, -0.04338408261537552, -0.03839949518442154, -0.03341490775346756, -0.028430312871932983, -0.023445725440979004, -0.018461138010025024, -0.013476543128490448, -0.008491955697536469, -0.003507368266582489, 0.0014772191643714905, 0.00646180659532547, 0.01144639402627945, 0.016430996358394623, 0.021415583789348602, 0.026400171220302582, 0.03138475865125656, 0.03636935353279114, 0.04135394096374512, 0.0463385283946991, 0.051323115825653076, 0.056307703256607056, 0.06129230558872223, 0.06627689301967621, 0.07126148045063019, 0.07624606788158417, 0.08123065531253815, 0.08621524274349213, 0.0911998376250267, 0.09618442505598068, 0.10116901248693466, 0.10615360736846924, 0.11113819479942322, 0.1161227822303772, 0.12110736966133118, 0.12609195709228516, 0.13107654452323914, 0.13606113195419312, 0.1410457193851471, 0.14603032171726227, 0.15101490914821625, 0.15599949657917023, 0.1609840840101242, 0.16596867144107819, 0.17095325887203217, 0.17593786120414734, 0.18092244863510132, 0.1859070360660553, 0.19089162349700928, 0.19587621092796326]}, "gradients/seq.0.weight": {"_type": "histogram", "values": [2.0, 6.0, 3.0, 6.0, 6.0, 3.0, 1.0, 6.0, 7.0, 5.0, 6.0, 3.0, 0.0, 6.0, 16.0, 24.0, 34.0, 33.0, 44.0, 38.0, 18.0, 3.0, 0.0, 27.0, 108.0, 165.0, 74.0, 33.0, 33.0, 24.0, 22.0, 0.0, 1.0, 3.0, 25.0, 17.0, 6.0, 2.0, 0.0, 1.0, 0.0, 2.0, 1.0, 4.0, 6.0, 3.0, 4.0, 3.0, 3.0, 0.0, 0.0, 0.0, 0.0, 0.0, 0.0, 1.0, 1.0, 3.0, 3.0, 5.0, 4.0, 4.0, 3.0, 3.0], "bins": [-0.6258041262626648, -0.6013700366020203, -0.576935887336731, -0.5525017976760864, -0.5280677080154419, -0.5036336183547974, -0.47919946908950806, -0.4547653794288635, -0.4303312599658966, -0.4058971405029297, -0.38146305084228516, -0.35702893137931824, -0.3325948119163513, -0.3081607222557068, -0.28372660279273987, -0.25929251313209534, -0.23485839366912842, -0.2104242742061615, -0.18599018454551697, -0.16155606508255005, -0.13712197542190552, -0.11268782615661621, -0.08825373649597168, -0.06381964683532715, -0.03938549757003784, -0.01495140790939331, 0.00948268175125122, 0.03391677141189575, 0.05835092067718506, 0.08278501033782959, 0.10721909999847412, 0.13165324926376343, 0.15608727931976318, 0.18052136898040771, 0.20495551824569702, 0.22938960790634155, 0.2538236975669861, 0.2782578468322754, 0.3026919364929199, 0.32712602615356445, 0.351560115814209, 0.3759942650794983, 0.4004283547401428, 0.42486244440078735, 0.44929659366607666, 0.4737306833267212, 0.4981648027896881, 0.5225988626480103, 0.5470330119132996, 0.5714671611785889, 0.5959012508392334, 0.6203353404998779, 0.6447694301605225, 0.669203519821167, 0.6936376690864563, 0.7180717587471008, 0.7425059080123901, 0.7669399976730347, 0.7913740873336792, 0.8158081769943237, 0.840242326259613, 0.8646764159202576, 0.8891105055809021, 0.9135446548461914, 0.9379787445068359]}}