{"graph_0": {"_type": "graph-file", "sha256": "b45bee1afdc2d316210de8ce8f160bd4d0d505fcac91583f7bff831f50a97e42", "size": 2817, "path": "media/graph/graph_0_summary_b45bee1afdc2d316210d.graph.json"}, "train_loss": 1.3007212686538696, "train_accuracy": 53.157997131347656, "test_loss": {"min": 0.7516569852828979}, "test_accuracy": {"max": 74.20999145507812}, "_timestamp": 1727963826.0416322, "_runtime": 1023.668092250824, "_step": 567, "accuracy_epoch": 433, "parameters/seq.0.weight": {"_type": "histogram", "values": [1.0, 0.0, 0.0, 2.0, 0.0, 0.0, 0.0, 0.0, 1.0, 0.0, 4.0, 0.0, 5.0, 7.0, 11.0, 7.0, 6.0, 6.0, 5.0, 15.0, 21.0, 17.0, 15.0, 19.0, 19.0, 16.0, 23.0, 23.0, 25.0, 26.0, 31.0, 28.0, 30.0, 35.0, 32.0, 37.0, 26.0, 29.0, 24.0, 17.0, 24.0, 22.0, 27.0, 26.0, 20.0, 21.0, 22.0, 17.0, 20.0, 20.0, 19.0, 11.0, 8.0, 10.0, 11.0, 6.0, 5.0, 3.0, 3.0, 0.0, 4.0, 0.0, 1.0, 1.0], "bins": [-0.38400372862815857, -0.3730446398258209, -0.36208558082580566, -0.351126492023468, -0.34016740322113037, -0.3292083144187927, -0.3182492256164551, -0.3072901666164398, -0.2963310778141022, -0.2853719890117645, -0.27441293001174927, -0.2634538412094116, -0.252494752407074, -0.24153566360473633, -0.23057658970355988, -0.21961751580238342, -0.20865842700004578, -0.19769933819770813, -0.18674026429653168, -0.17578119039535522, -0.16482210159301758, -0.15386301279067993, -0.14290393888950348, -0.13194486498832703, -0.12098577618598938, -0.11002668738365173, -0.09906759858131409, -0.08810853958129883, -0.07714945077896118, -0.06619036197662354, -0.055231302976608276, -0.04427221417427063, -0.03331315517425537, -0.022354066371917725, -0.011394977569580078, -0.00043591856956481934, 0.010523170232772827, 0.021482259035110474, 0.03244131803512573, 0.04340040683746338, 0.054359495639801025, 0.06531858444213867, 0.07627765834331512, 0.08723673224449158, 0.09819582104682922, 0.10915490984916687, 0.12011398375034332, 0.13107305765151978, 0.14203214645385742, 0.15299123525619507, 0.16395030915737152, 0.17490938305854797, 0.18586847186088562, 0.19682756066322327, 0.20778663456439972, 0.21874570846557617, 0.22970479726791382, 0.24066388607025146, 0.2516229748725891, 0.26258203387260437, 0.273541122674942, 0.28450021147727966, 0.2954592704772949, 0.30641835927963257, 0.3173774480819702]}, "parameters/seq.1.weight": {"_type": "histogram", "values": [4.0, 0.0, 0.0, 1.0, 0.0, 1.0, 0.0, 2.0, 0.0, 1.0, 0.0, 1.0, 0.0, 1.0, 2.0, 0.0, 1.0, 0.0, 1.0, 1.0, 0.0, 0.0, 1.0, 1.0, 0.0, 0.0, 0.0, 0.0, 0.0, 0.0, 1.0, 0.0, 1.0, 1.0, 0.0, 1.0, 3.0, 1.0, 0.0, 1.0, 0.0, 0.0, 0.0, 0.0, 1.0, 1.0, 0.0, 0.0, 0.0, 0.0, 0.0, 0.0, 0.0, 0.0, 0.0, 0.0, 0.0, 0.0, 1.0, 0.0, 0.0, 1.0, 0.0, 1.0], "bins": [0.870395839214325, 0.8750181794166565, 0.8796404600143433, 0.8842628002166748, 0.8888851404190063, 0.8935074210166931, 0.8981297612190247, 0.9027520418167114, 0.907374382019043, 0.9119967222213745, 0.9166190028190613, 0.9212413430213928, 0.9258636832237244, 0.9304859638214111, 0.9351083040237427, 0.9397306442260742, 0.944352924823761, 0.9489752650260925, 0.9535975456237793, 0.9582198858261108, 0.9628422260284424, 0.9674645662307739, 0.9720868468284607, 0.9767091870307922, 0.981331467628479, 0.9859538078308105, 0.9905761480331421, 0.9951984286308289, 0.9998207688331604, 1.0044430494308472, 1.0090653896331787, 1.0136877298355103, 1.0183100700378418, 1.0229324102401733, 1.0275546312332153, 1.0321769714355469, 1.0367993116378784, 1.04142165184021, 1.0460439920425415, 1.050666332244873, 1.055288553237915, 1.0599108934402466, 1.0645332336425781, 1.0691555738449097, 1.0737779140472412, 1.0784001350402832, 1.0830224752426147, 1.0876448154449463, 1.0922671556472778, 1.0968894958496094, 1.1015117168426514, 1.106134057044983, 1.1107563972473145, 1.115378737449646, 1.1200010776519775, 1.124623417854309, 1.129245638847351, 1.1338679790496826, 1.1384903192520142, 1.1431126594543457, 1.1477349996566772, 1.1523573398590088, 1.1569795608520508, 1.1616019010543823, 1.1662242412567139]}, "parameters/seq.1.bias": {"_type": "histogram", "values": [1.0, 0.0, 0.0, 0.0, 0.0, 0.0, 0.0, 0.0, 0.0, 0.0, 0.0, 1.0, 0.0, 1.0, 0.0, 0.0, 1.0, 1.0, 1.0, 2.0, 1.0, 1.0, 1.0, 0.0, 1.0, 1.0, 0.0, 0.0, 0.0, 0.0, 2.0, 1.0, 0.0, 0.0, 1.0, 0.0, 0.0, 0.0, 1.0, 0.0, 0.0, 0.0, 1.0, 0.0, 1.0, 1.0, 0.0, 1.0, 1.0, 1.0, 1.0, 2.0, 0.0, 0.0, 0.0, 1.0, 0.0, 1.0, 0.0, 0.0, 2.0, 0.0, 0.0, 1.0], "bins": [-0.14540202915668488, -0.13901151716709137, -0.13262102007865906, -0.12623050808906555, -0.11984000355005264, -0.11344949901103973, -0.10705898702144623, -0.10066848248243332, -0.09427797794342041, -0.0878874734044075, -0.08149696886539459, -0.07510645687580109, -0.06871595233678818, -0.06232544779777527, -0.05593493580818176, -0.049544431269168854, -0.043153926730155945, -0.036763422191143036, -0.030372917652130127, -0.02398240566253662, -0.01759190857410431, -0.011201396584510803, -0.004810884594917297, 0.0015796124935150146, 0.00797012448310852, 0.014360636472702026, 0.02075113356113434, 0.027141645550727844, 0.03353215754032135, 0.03992265462875366, 0.04631316661834717, 0.05270366370677948, 0.05909419059753418, 0.06548470258712769, 0.07187519967556, 0.0782657116651535, 0.08465620875358582, 0.09104672074317932, 0.09743723273277283, 0.10382772982120514, 0.11021824181079865, 0.11660875380039215, 0.12299925088882446, 0.12938976287841797, 0.13578027486801147, 0.1421707719564438, 0.1485612839460373, 0.1549517810344696, 0.1613422930240631, 0.16773280501365662, 0.17412330210208893, 0.18051381409168243, 0.18690431118011475, 0.19329482316970825, 0.19968533515930176, 0.20607584714889526, 0.21246634423732758, 0.2188568413257599, 0.2252473533153534, 0.2316378653049469, 0.2380283772945404, 0.24441887438297272, 0.25080937147140503, 0.25719988346099854, 0.26359039545059204]}, "parameters/seq.4.weight": {"_type": "histogram", "values": [1.0, 0.0, 0.0, 0.0, 1.0, 1.0, 1.0, 1.0, 0.0, 1.0, 3.0, 7.0, 9.0, 5.0, 6.0, 9.0, 15.0, 16.0, 15.0, 32.0, 36.0, 42.0, 76.0, 99.0, 130.0, 205.0, 235.0, 282.0, 381.0, 502.0, 662.0, 792.0, 986.0, 1092.0, 1269.0, 1428.0, 1499.0, 1477.0, 1381.0, 1195.0, 1020.0, 779.0, 721.0, 498.0, 392.0, 310.0, 220.0, 168.0, 121.0, 74.0, 66.0, 53.0, 33.0, 27.0, 21.0, 11.0, 8.0, 7.0, 5.0, 1.0, 1.0, 1.0, 0.0, 3.0], "bins": [-0.26847779750823975, -0.26124513149261475, -0.25401246547698975, -0.24677978456020355, -0.23954711854457855, -0.23231445252895355, -0.22508177161216736, -0.21784910559654236, -0.21061643958091736, -0.20338377356529236, -0.19615110754966736, -0.18891842663288116, -0.18168576061725616, -0.17445309460163116, -0.16722041368484497, -0.15998774766921997, -0.15275508165359497, -0.14552241563796997, -0.13828974962234497, -0.13105706870555878, -0.12382440268993378, -0.11659173667430878, -0.10935905575752258, -0.10212638974189758, -0.09489372372627258, -0.08766105771064758, -0.08042839169502258, -0.07319571077823639, -0.06596304476261139, -0.05873037874698639, -0.051497697830200195, -0.044265031814575195, -0.037032350897789, -0.029799684882164, -0.022567018866539, -0.015334337949752808, -0.008101671934127808, -0.0008690059185028076, 0.006363674998283386, 0.013596341013908386, 0.020829007029533386, 0.028061673045158386, 0.035294339060783386, 0.04252701997756958, 0.04975968599319458, 0.05699235200881958, 0.06422503292560577, 0.07145769894123077, 0.07869036495685577, 0.08592303097248077, 0.09315570443868637, 0.10038837790489197, 0.10762104392051697, 0.11485370993614197, 0.12208638340234756, 0.12931905686855316, 0.13655172288417816, 0.14378438889980316, 0.15101706981658936, 0.15824973583221436, 0.16548240184783936, 0.17271506786346436, 0.17994773387908936, 0.18718041479587555, 0.19441308081150055]}, "parameters/seq.5.weight": {"_type": "histogram", "values": [1.0, 0.0, 0.0, 0.0, 1.0, 0.0, 0.0, 0.0, 3.0, 1.0, 2.0, 1.0, 1.0, 2.0, 0.0, 3.0, 2.0, 1.0, 0.0, 0.0, 0.0, 2.0, 4.0, 0.0, 0.0, 3.0, 2.0, 4.0, 1.0, 1.0, 3.0, 0.0, 2.0, 0.0, 2.0, 3.0, 0.0, 2.0, 1.0, 1.0, 2.0, 1.0, 0.0, 1.0, 1.0, 0.0, 4.0, 1.0, 0.0, 1.0, 0.0, 0.0, 2.0, 0.0, 0.0, 0.0, 0.0, 0.0, 0.0, 0.0, 0.0, 1.0, 0.0, 1.0], "bins": [1.0726770162582397, 1.0747017860412598, 1.0767265558242798, 1.0787513256072998, 1.0807762145996094, 1.0828009843826294, 1.0848257541656494, 1.0868505239486694, 1.0888752937316895, 1.0909000635147095, 1.0929248332977295, 1.094949722290039, 1.096974492073059, 1.098999261856079, 1.1010240316390991, 1.1030488014221191, 1.1050735712051392, 1.1070983409881592, 1.1091232299804688, 1.1111479997634888, 1.1131727695465088, 1.1151975393295288, 1.1172223091125488, 1.1192470788955688, 1.1212718486785889, 1.1232967376708984, 1.1253215074539185, 1.1273462772369385, 1.1293710470199585, 1.1313958168029785, 1.1334205865859985, 1.1354453563690186, 1.1374702453613281, 1.1394950151443481, 1.1415197849273682, 1.1435445547103882, 1.1455693244934082, 1.1475940942764282, 1.1496188640594482, 1.1516437530517578, 1.1536685228347778, 1.1556932926177979, 1.1577180624008179, 1.159742832183838, 1.161767601966858, 1.163792371749878, 1.165817141532898, 1.1678420305252075, 1.1698668003082275, 1.1718915700912476, 1.1739163398742676, 1.1759411096572876, 1.1779658794403076, 1.1799906492233276, 1.1820155382156372, 1.1840403079986572, 1.1860650777816772, 1.1880898475646973, 1.1901146173477173, 1.1921393871307373, 1.1941641569137573, 1.196189045906067, 1.198213815689087, 1.200238585472107, 1.202263355255127]}, "parameters/seq.5.bias": {"_type": "histogram", "values": [1.0, 0.0, 1.0, 1.0, 0.0, 1.0, 1.0, 0.0, 3.0, 2.0, 1.0, 1.0, 1.0, 3.0, 1.0, 4.0, 3.0, 1.0, 2.0, 0.0, 1.0, 2.0, 1.0, 2.0, 1.0, 2.0, 0.0, 4.0, 1.0, 1.0, 0.0, 3.0, 2.0, 1.0, 1.0, 0.0, 2.0, 1.0, 1.0, 0.0, 0.0, 1.0, 1.0, 0.0, 0.0, 0.0, 2.0, 1.0, 0.0, 1.0, 1.0, 1.0, 1.0, 1.0, 0.0, 0.0, 0.0, 0.0, 0.0, 0.0, 0.0, 0.0, 0.0, 1.0], "bins": [-0.23885224759578705, -0.23228512704372406, -0.22571800649166107, -0.2191508710384369, -0.2125837504863739, -0.2060166299343109, -0.19944950938224792, -0.19288238883018494, -0.18631525337696075, -0.17974813282489777, -0.17318101227283478, -0.1666138768196106, -0.1600467562675476, -0.15347963571548462, -0.14691251516342163, -0.14034539461135864, -0.13377827405929565, -0.12721115350723267, -0.12064401805400848, -0.1140768975019455, -0.10750977694988251, -0.10094264149665833, -0.09437552094459534, -0.08780840039253235, -0.08124127984046936, -0.07467415928840637, -0.06810702383518219, -0.0615399032831192, -0.05497278273105621, -0.048405662178993225, -0.04183852672576904, -0.035271406173706055, -0.028704285621643066, -0.022137165069580078, -0.01557004451751709, -0.009002909064292908, -0.0024357885122299194, 0.004131332039833069, 0.010698452591896057, 0.01726558804512024, 0.023832708597183228, 0.030399829149246216, 0.036966949701309204, 0.04353407025337219, 0.050101205706596375, 0.05666832625865936, 0.06323544681072235, 0.06980257481336594, 0.07636969536542892, 0.08293681591749191, 0.0895039439201355, 0.09607106447219849, 0.10263819247484207, 0.10920531302690506, 0.11577244102954865, 0.12233956158161163, 0.12890668213367462, 0.1354738175868988, 0.1420409381389618, 0.14860805869102478, 0.15517517924308777, 0.16174229979515076, 0.16830943524837494, 0.17487655580043793, 0.18144367635250092]}, "parameters/seq.9.weight": {"_type": "histogram", "values": [21512.0, 21568.0, 21470.0, 21643.0, 10168.0, 41.0, 0.0, 0.0, 0.0, 1.0, 1.0, 0.0, 3.0, 5.0, 11.0, 18.0, 37.0, 72.0, 122.0, 209.0, 386.0, 694.0, 1110.0, 1861.0, 2854.0, 4220.0, 6179.0, 8429.0, 10841.0, 13753.0, 15846.0, 17211.0, 17753.0, 16890.0, 14978.0, 12420.0, 9709.0, 7043.0, 4806.0, 3226.0, 1995.0, 1120.0, 636.0, 339.0, 157.0, 85.0, 45.0, 18.0, 14.0, 6.0, 1.0, 0.0, 0.0, 0.0, 0.0, 0.0, 0.0, 0.0, 9.0, 599.0, 1147.0, 1136.0, 1091.0, 992.0], "bins": [-0.2981153130531311, -0.2887994647026062, -0.2794836163520813, -0.2701677680015564, -0.2608519196510315, -0.2515360713005066, -0.2422202080488205, -0.2329043447971344, -0.2235884964466095, -0.2142726480960846, -0.2049567997455597, -0.1956409513950348, -0.1863251030445099, -0.17700925469398499, -0.1676933914422989, -0.158377543091774, -0.14906169474124908, -0.13974584639072418, -0.13042999804019928, -0.12111413478851318, -0.11179828643798828, -0.10248243808746338, -0.09316658973693848, -0.08385074138641357, -0.07453489303588867, -0.06521902978420258, -0.05590318143367767, -0.04658731818199158, -0.037271469831466675, -0.027955621480941772, -0.01863977313041687, -0.009323924779891968, -8.07642936706543e-06, 0.009307771921157837, 0.01862362027168274, 0.02793946862220764, 0.037255316972732544, 0.046571165323257446, 0.05588702857494354, 0.06520287692546844, 0.07451874017715454, 0.08383458852767944, 0.09315043687820435, 0.10246628522872925, 0.11178213357925415, 0.12109798192977905, 0.13041384518146515, 0.13972969353199005, 0.14904554188251495, 0.15836139023303986, 0.16767723858356476, 0.17699310183525085, 0.18630895018577576, 0.19562479853630066, 0.20494064688682556, 0.21425649523735046, 0.22357234358787537, 0.23288819193840027, 0.24220405519008636, 0.25151991844177246, 0.26083576679229736, 0.27015161514282227, 0.27946746349334717, 0.28878331184387207, 0.298099160194397]}, "parameters/seq.9.bias": {"_type": "histogram", "values": [8.0, 6.0, 6.0, 6.0, 10.0, 8.0, 0.0, 0.0, 0.0, 0.0, 0.0, 0.0, 0.0, 0.0, 0.0, 0.0, 0.0, 0.0, 0.0, 0.0, 0.0, 0.0, 0.0, 0.0, 0.0, 0.0, 0.0, 0.0, 0.0, 0.0, 1.0, 0.0, 1.0, 1.0, 0.0, 2.0, 4.0, 3.0, 2.0, 1.0, 5.0, 3.0, 4.0, 5.0, 3.0, 5.0, 7.0, 2.0, 3.0, 0.0, 3.0, 1.0, 5.0, 3.0, 2.0, 2.0, 2.0, 1.0, 0.0, 2.0, 2.0, 0.0, 0.0, 1.0], "bins": [-0.2975422441959381, -0.2910126745700836, -0.2844831049442291, -0.27795353531837463, -0.27142393589019775, -0.26489436626434326, -0.25836479663848877, -0.2518352270126343, -0.24530565738677979, -0.2387760877609253, -0.2322465181350708, -0.22571693360805511, -0.21918736398220062, -0.21265779435634613, -0.20612820982933044, -0.19959864020347595, -0.19306907057762146, -0.18653950095176697, -0.18000993132591248, -0.1734803467988968, -0.1669507771730423, -0.1604212075471878, -0.15389162302017212, -0.14736205339431763, -0.14083248376846313, -0.13430291414260864, -0.12777334451675415, -0.12124375998973846, -0.11471419036388397, -0.10818462073802948, -0.1016550362110138, -0.0951254665851593, -0.088595911860466, -0.08206634223461151, -0.07553677260875702, -0.06900718808174133, -0.06247761845588684, -0.05594804883003235, -0.04941846430301666, -0.04288889467716217, -0.03635932505130768, -0.029829755425453186, -0.023300185799598694, -0.016770601272583008, -0.010241031646728516, -0.0037114620208740234, 0.0028181150555610657, 0.009347692131996155, 0.015877261757850647, 0.02240683138370514, 0.02893640846014023, 0.03546598553657532, 0.04199555516242981, 0.0485251247882843, 0.05505470186471939, 0.06158427521586418, 0.06811384856700897, 0.07464341819286346, 0.08117299526929855, 0.08770257234573364, 0.09423214197158813, 0.10076171159744263, 0.10729128867387772, 0.1138208657503128, 0.1203504353761673]}, "parameters/seq.11.weight": {"_type": "histogram", "values": [191.0, 228.0, 212.0, 235.0, 232.0, 217.0, 245.0, 214.0, 234.0, 241.0, 242.0, 249.0, 263.0, 261.0, 242.0, 249.0, 57.0, 66.0, 75.0, 69.0, 86.0, 117.0, 117.0, 142.0, 148.0, 157.0, 183.0, 161.0, 208.0, 175.0, 220.0, 192.0, 203.0, 209.0, 194.0, 198.0, 194.0, 230.0, 175.0, 199.0, 163.0, 158.0, 137.0, 109.0, 87.0, 76.0, 59.0, 64.0, 126.0, 125.0, 142.0, 112.0, 130.0, 125.0, 103.0, 103.0, 117.0, 105.0, 99.0, 77.0, 89.0, 86.0, 80.0, 78.0], "bins": [-0.3683682978153229, -0.35686615109443665, -0.3453640043735504, -0.3338618576526642, -0.32235971093177795, -0.3108575642108917, -0.2993554174900055, -0.28785327076911926, -0.27635112404823303, -0.2648489773273468, -0.25334683060646057, -0.24184468388557434, -0.2303425371646881, -0.21884039044380188, -0.20733824372291565, -0.19583609700202942, -0.1843339502811432, -0.17283180356025696, -0.16132965683937073, -0.1498275101184845, -0.13832536339759827, -0.12682321667671204, -0.1153210699558258, -0.10381892323493958, -0.09231677651405334, -0.08081462979316711, -0.06931248307228088, -0.05781033635139465, -0.04630818963050842, -0.03480604290962219, -0.023303896188735962, -0.011801749467849731, -0.000299602746963501, 0.01120254397392273, 0.02270469069480896, 0.03420683741569519, 0.04570898413658142, 0.05721113085746765, 0.06871327757835388, 0.08021542429924011, 0.09171757102012634, 0.10321971774101257, 0.1147218644618988, 0.12622401118278503, 0.13772615790367126, 0.1492283046245575, 0.16073045134544373, 0.17223259806632996, 0.1837347447872162, 0.19523689150810242, 0.20673903822898865, 0.21824118494987488, 0.2297433316707611, 0.24124547839164734, 0.25274762511253357, 0.2642497718334198, 0.27575191855430603, 0.28725406527519226, 0.2987562119960785, 0.3102583587169647, 0.32176050543785095, 0.3332626521587372, 0.3447647988796234, 0.35626694560050964, 0.3677690923213959]}, "parameters/seq.11.bias": {"_type": "histogram", "values": [2.0, 1.0, 0.0, 2.0, 0.0, 0.0, 3.0, 1.0, 1.0, 1.0, 2.0, 0.0, 2.0, 0.0, 1.0, 1.0, 1.0, 0.0, 1.0, 1.0, 0.0, 2.0, 1.0, 1.0, 0.0, 2.0, 2.0, 4.0, 3.0, 1.0, 6.0, 1.0, 1.0, 3.0, 2.0, 4.0, 2.0, 4.0, 2.0, 0.0, 3.0, 2.0, 1.0, 1.0, 4.0, 1.0, 1.0, 0.0, 3.0, 2.0, 1.0, 0.0, 0.0, 1.0, 1.0, 0.0, 0.0, 0.0, 0.0, 0.0, 1.0, 0.0, 0.0, 1.0], "bins": [-0.3551490604877472, -0.34541529417037964, -0.3356814980506897, -0.32594773173332214, -0.3162139654159546, -0.30648019909858704, -0.2967464327812195, -0.28701263666152954, -0.277278870344162, -0.26754510402679443, -0.2578113079071045, -0.24807754158973694, -0.23834377527236938, -0.22861000895500183, -0.21887622773647308, -0.20914244651794434, -0.19940868020057678, -0.18967491388320923, -0.17994113266468048, -0.17020735144615173, -0.16047358512878418, -0.15073981881141663, -0.14100603759288788, -0.13127225637435913, -0.12153849005699158, -0.11180472373962402, -0.10207095742225647, -0.09233716130256653, -0.08260339498519897, -0.07286962866783142, -0.06313583254814148, -0.053402066230773926, -0.043668270111083984, -0.03393450379371643, -0.024200737476348877, -0.014466941356658936, -0.004733175039291382, 0.005000591278076172, 0.014734387397766113, 0.024468153715133667, 0.03420192003250122, 0.043935686349868774, 0.05366946756839752, 0.06340324878692627, 0.07313701510429382, 0.08287078142166138, 0.09260456264019012, 0.10233834385871887, 0.11207211017608643, 0.12180587649345398, 0.13153965771198273, 0.14127343893051147, 0.15100720524787903, 0.16074097156524658, 0.17047475278377533, 0.18020853400230408, 0.18994230031967163, 0.19967606663703918, 0.20940984785556793, 0.21914362907409668, 0.22887739539146423, 0.2386111617088318, 0.24834494292736053, 0.2580787241458893, 0.26781249046325684]}, "parameters/seq.13.weight": {"_type": "histogram", "values": [3.0, 5.0, 4.0, 15.0, 12.0, 7.0, 19.0, 12.0, 9.0, 6.0, 10.0, 22.0, 19.0, 22.0, 17.0, 18.0, 24.0, 23.0, 12.0, 8.0, 15.0, 12.0, 20.0, 9.0, 16.0, 6.0, 14.0, 21.0, 18.0, 11.0, 17.0, 16.0, 16.0, 14.0, 11.0, 19.0, 18.0, 21.0, 16.0, 17.0, 13.0, 14.0, 7.0, 10.0, 13.0, 15.0, 16.0, 16.0, 14.0, 8.0, 17.0, 12.0, 14.0, 10.0, 11.0, 16.0, 10.0, 15.0, 10.0, 3.0, 10.0, 7.0, 3.0, 2.0], "bins": [-0.38479816913604736, -0.3728184103965759, -0.3608386814594269, -0.34885892271995544, -0.3368791937828064, -0.32489943504333496, -0.3129196763038635, -0.3009399175643921, -0.28896018862724304, -0.276980459690094, -0.26500070095062256, -0.2530209422111511, -0.24104119837284088, -0.22906145453453064, -0.2170816957950592, -0.20510195195674896, -0.19312220811843872, -0.18114246428012848, -0.16916272044181824, -0.1571829617023468, -0.14520321786403656, -0.13322347402572632, -0.12124371528625488, -0.10926398634910583, -0.0972842276096344, -0.08530446887016296, -0.07332473993301392, -0.06134498119354248, -0.049365222454071045, -0.037385493516922, -0.02540573477745056, -0.013426005840301514, -0.0014462471008300781, 0.010533511638641357, 0.022513240575790405, 0.03449299931526184, 0.04647272825241089, 0.058452486991882324, 0.07043224573135376, 0.08241197466850281, 0.09439173340797424, 0.10637149214744568, 0.11835122108459473, 0.13033097982406616, 0.1423107236623764, 0.15429046750068665, 0.16627022624015808, 0.17824997007846832, 0.19022971391677856, 0.2022094577550888, 0.21418920159339905, 0.22616896033287048, 0.23814870417118073, 0.25012844800949097, 0.2621082067489624, 0.27408796548843384, 0.2860676944255829, 0.29804742336273193, 0.31002718210220337, 0.3220069408416748, 0.33398669958114624, 0.3459664285182953, 0.3579461872577667, 0.36992591619491577, 0.3819056749343872]}, "parameters/seq.13.bias": {"_type": "histogram", "values": [1.0, 0.0, 0.0, 0.0, 0.0, 0.0, 0.0, 0.0, 0.0, 0.0, 1.0, 0.0, 0.0, 1.0, 0.0, 0.0, 0.0, 0.0, 1.0, 1.0, 0.0, 0.0, 0.0, 1.0, 0.0, 0.0, 0.0, 0.0, 0.0, 0.0, 1.0, 0.0, 0.0, 0.0, 0.0, 0.0, 0.0, 0.0, 0.0, 0.0, 0.0, 0.0, 1.0, 0.0, 0.0, 1.0, 0.0, 0.0, 0.0, 0.0, 0.0, 0.0, 0.0, 0.0, 0.0, 0.0, 0.0, 0.0, 0.0, 0.0, 0.0, 0.0, 0.0, 1.0], "bins": [-0.12821345031261444, -0.12358406186103821, -0.11895467340946198, -0.11432528495788574, -0.10969589650630951, -0.10506650805473328, -0.10043711960315704, -0.09580773115158081, -0.09117834270000458, -0.08654895424842834, -0.08191956579685211, -0.07729017734527588, -0.07266079634428024, -0.06803140789270401, -0.06340201944112778, -0.058772630989551544, -0.05414324253797531, -0.04951385408639908, -0.044884465634822845, -0.04025507718324661, -0.03562568873167038, -0.030996300280094147, -0.026366911828517914, -0.02173752337694168, -0.017108142375946045, -0.012478753924369812, -0.007849365472793579, -0.003219977021217346, 0.0014094114303588867, 0.00603879988193512, 0.010668188333511353, 0.015297576785087585, 0.01992696523666382, 0.02455635368824005, 0.029185742139816284, 0.03381513059139252, 0.03844451904296875, 0.04307390749454498, 0.047703295946121216, 0.05233268439769745, 0.05696207284927368, 0.06159145385026932, 0.06622084230184555, 0.07085023075342178, 0.07547961920499802, 0.08010900765657425, 0.08473839610815048, 0.08936778455972672, 0.09399717301130295, 0.09862656146287918, 0.10325594991445541, 0.10788533836603165, 0.11251472681760788, 0.11714410781860352, 0.12177349627017975, 0.12640288472175598, 0.13103227317333221, 0.13566166162490845, 0.14029105007648468, 0.1449204385280609, 0.14954982697963715, 0.15417921543121338, 0.1588086038827896, 0.16343799233436584, 0.16806738078594208]}, "gradients/seq.13.weight": {"_type": "histogram", "values": [3.0, 0.0, 0.0, 0.0, 0.0, 1.0, 0.0, 5.0, 1.0, 0.0, 1.0, 2.0, 0.0, 0.0, 1.0, 3.0, 1.0, 1.0, 2.0, 0.0, 2.0, 5.0, 3.0, 2.0, 2.0, 6.0, 1.0, 6.0, 4.0, 7.0, 4.0, 7.0, 9.0, 12.0, 6.0, 15.0, 23.0, 44.0, 60.0, 282.0, 77.0, 49.0, 33.0, 23.0, 27.0, 16.0, 14.0, 11.0, 12.0, 10.0, 4.0, 8.0, 6.0, 1.0, 5.0, 6.0, 3.0, 3.0, 1.0, 6.0, 0.0, 2.0, 1.0, 1.0], "bins": [-3610.0, -3518.8125, -3427.625, -3336.4375, -3245.25, -3154.0625, -3062.875, -2971.6875, -2880.5, -2789.3125, -2698.125, -2606.9375, -2515.75, -2424.5625, -2333.375, -2242.1875, -2151.0, -2059.8125, -1968.625, -1877.4375, -1786.25, -1695.0625, -1603.875, -1512.6875, -1421.5, -1330.3125, -1239.125, -1147.9375, -1056.75, -965.5625, -874.375, -783.1875, -692.0, -600.8125, -509.625, -418.4375, -327.25, -236.0625, -144.875, -53.6875, 37.5, 128.6875, 219.875, 311.0625, 402.25, 493.4375, 584.625, 675.8125, 767.0, 858.1875, 949.375, 1040.5625, 1131.75, 1222.9375, 1314.125, 1405.3125, 1496.5, 1587.6875, 1678.875, 1770.0625, 1861.25, 1952.4375, 2043.625, 2134.8125, 2226.0]}, "gradients/seq.13.bias": {"_type": "histogram", "values": [1.0, 0.0, 0.0, 0.0, 0.0, 0.0, 0.0, 0.0, 0.0, 0.0, 1.0, 0.0, 0.0, 0.0, 0.0, 0.0, 0.0, 0.0, 0.0, 0.0, 0.0, 0.0, 0.0, 0.0, 0.0, 0.0, 0.0, 0.0, 0.0, 0.0, 0.0, 0.0, 0.0, 1.0, 0.0, 0.0, 0.0, 0.0, 0.0, 2.0, 0.0, 1.0, 0.0, 0.0, 0.0, 1.0, 0.0, 0.0, 1.0, 0.0, 0.0, 0.0, 0.0, 0.0, 0.0, 0.0, 0.0, 0.0, 1.0, 0.0, 0.0, 0.0, 0.0, 1.0], "bins": [-590.5, -574.93359375, -559.3671875, -543.80078125, -528.234375, -512.66796875, -497.1015625, -481.53515625, -465.96875, -450.40234375, -434.8359375, -419.26953125, -403.703125, -388.13671875, -372.5703125, -357.00390625, -341.4375, -325.87109375, -310.3046875, -294.73828125, -279.171875, -263.60546875, -248.0390625, -232.47265625, -216.90625, -201.33984375, -185.7734375, -170.20703125, -154.640625, -139.07421875, -123.5078125, -107.94140625, -92.375, -76.80859375, -61.2421875, -45.67578125, -30.109375, -14.54296875, 1.0234375, 16.58984375, 32.15625, 47.72265625, 63.2890625, 78.85546875, 94.421875, 109.98828125, 125.5546875, 141.12109375, 156.6875, 172.25390625, 187.8203125, 203.38671875, 218.953125, 234.51953125, 250.0859375, 265.65234375, 281.21875, 296.78515625, 312.3515625, 327.91796875, 343.484375, 359.05078125, 374.6171875, 390.18359375, 405.75]}, "gradients/seq.11.weight": {"_type": "histogram", "values": [1.0, 1.0, 0.0, 0.0, 0.0, 1.0, 1.0, 0.0, 0.0, 0.0, 2.0, 1.0, 2.0, 1.0, 0.0, 0.0, 1.0, 4.0, 2.0, 5.0, 3.0, 8.0, 2.0, 2.0, 7.0, 8.0, 7.0, 17.0, 15.0, 15.0, 26.0, 28.0, 27.0, 41.0, 47.0, 60.0, 93.0, 105.0, 170.0, 200.0, 297.0, 453.0, 931.0, 6436.0, 457.0, 225.0, 106.0, 72.0, 49.0, 36.0, 38.0, 26.0, 14.0, 8.0, 6.0, 6.0, 5.0, 7.0, 1.0, 0.0, 2.0, 0.0, 1.0, 1.0], "bins": [-5444.0, -5318.34375, -5192.6875, -5067.03125, -4941.375, -4815.71875, -4690.0625, -4564.40625, -4438.75, -4313.09375, -4187.4375, -4061.78125, -3936.125, -3810.46875, -3684.8125, -3559.15625, -3433.5, -3307.84375, -3182.1875, -3056.53125, -2930.875, -2805.21875, -2679.5625, -2553.90625, -2428.25, -2302.59375, -2176.9375, -2051.28125, -1925.625, -1799.96875, -1674.3125, -1548.65625, -1423.0, -1297.34375, -1171.6875, -1046.03125, -920.375, -794.71875, -669.0625, -543.40625, -417.75, -292.09375, -166.4375, -40.78125, 84.875, 210.53125, 336.1875, 461.84375, 587.5, 713.15625, 838.8125, 964.46875, 1090.125, 1215.78125, 1341.4375, 1467.09375, 1592.75, 1718.40625, 1844.0625, 1969.71875, 2095.375, 2221.03125, 2346.6875, 2472.34375, 2598.0]}, "gradients/seq.11.bias": {"_type": "histogram", "values": [1.0, 0.0, 0.0, 0.0, 0.0, 0.0, 0.0, 0.0, 0.0, 0.0, 0.0, 1.0, 0.0, 0.0, 1.0, 0.0, 0.0, 0.0, 0.0, 0.0, 1.0, 0.0, 1.0, 0.0, 0.0, 0.0, 2.0, 0.0, 0.0, 1.0, 2.0, 3.0, 1.0, 1.0, 2.0, 1.0, 2.0, 4.0, 0.0, 0.0, 5.0, 0.0, 2.0, 3.0, 2.0, 3.0, 4.0, 25.0, 2.0, 1.0, 0.0, 2.0, 1.0, 1.0, 1.0, 1.0, 0.0, 0.0, 1.0, 3.0, 0.0, 1.0, 1.0, 1.0], "bins": [-513.0, -502.17578125, -491.3515625, -480.52734375, -469.703125, -458.87890625, -448.0546875, -437.23046875, -426.40625, -415.58203125, -404.7578125, -393.93359375, -383.109375, -372.28515625, -361.4609375, -350.63671875, -339.8125, -328.98828125, -318.1640625, -307.33984375, -296.515625, -285.69140625, -274.8671875, -264.04296875, -253.21875, -242.39453125, -231.5703125, -220.74609375, -209.921875, -199.09765625, -188.2734375, -177.44921875, -166.625, -155.80078125, -144.9765625, -134.15234375, -123.328125, -112.50390625, -101.6796875, -90.85546875, -80.03125, -69.20703125, -58.3828125, -47.55859375, -36.734375, -25.91015625, -15.0859375, -4.26171875, 6.5625, 17.38671875, 28.2109375, 39.03515625, 49.859375, 60.68359375, 71.5078125, 82.33203125, 93.15625, 103.98046875, 114.8046875, 125.62890625, 136.453125, 147.27734375, 158.1015625, 168.92578125, 179.75]}, "gradients/seq.9.weight": {"_type": "histogram", "values": [2.0, 1.0, 0.0, 0.0, 2.0, 0.0, 3.0, 2.0, 4.0, 2.0, 1.0, 6.0, 3.0, 7.0, 21.0, 35.0, 37.0, 68.0, 108.0, 197.0, 271.0, 429.0, 651.0, 840.0, 1023.0, 1231.0, 1614.0, 2012.0, 2607.0, 3513.0, 4907.0, 6429.0, 8505.0, 10681.0, 13082.0, 14770.0, 15069.0, 115938.0, 13817.0, 12517.0, 11095.0, 9457.0, 7582.0, 5695.0, 3940.0, 2832.0, 1919.0, 1381.0, 930.0, 522.0, 274.0, 185.0, 118.0, 62.0, 36.0, 19.0, 13.0, 3.0, 5.0, 2.0, 2.0, 0.0, 1.0, 2.0], "bins": [-923.5, -898.921875, -874.34375, -849.765625, -825.1875, -800.609375, -776.03125, -751.453125, -726.875, -702.296875, -677.71875, -653.140625, -628.5625, -603.984375, -579.40625, -554.828125, -530.25, -505.671875, -481.09375, -456.515625, -431.9375, -407.359375, -382.78125, -358.203125, -333.625, -309.046875, -284.46875, -259.890625, -235.3125, -210.734375, -186.15625, -161.578125, -137.0, -112.421875, -87.84375, -63.265625, -38.6875, -14.109375, 10.46875, 35.046875, 59.625, 84.203125, 108.78125, 133.359375, 157.9375, 182.515625, 207.09375, 231.671875, 256.25, 280.828125, 305.40625, 329.984375, 354.5625, 379.140625, 403.71875, 428.296875, 452.875, 477.453125, 502.03125, 526.609375, 551.1875, 575.765625, 600.34375, 624.921875, 649.5]}, "gradients/seq.9.bias": {"_type": "histogram", "values": [1.0, 0.0, 0.0, 0.0, 0.0, 1.0, 0.0, 0.0, 0.0, 0.0, 0.0, 1.0, 0.0, 1.0, 0.0, 1.0, 0.0, 0.0, 0.0, 0.0, 1.0, 0.0, 0.0, 3.0, 0.0, 2.0, 2.0, 1.0, 3.0, 5.0, 0.0, 2.0, 3.0, 2.0, 4.0, 1.0, 2.0, 1.0, 4.0, 46.0, 5.0, 2.0, 0.0, 3.0, 3.0, 0.0, 3.0, 2.0, 1.0, 1.0, 0.0, 1.0, 4.0, 2.0, 0.0, 1.0, 1.0, 1.0, 0.0, 1.0, 1.0, 0.0, 0.0, 1.0], "bins": [-507.75, -494.921875, -482.09375, -469.265625, -456.4375, -443.609375, -430.78125, -417.953125, -405.125, -392.296875, -379.46875, -366.640625, -353.8125, -340.984375, -328.15625, -315.328125, -302.5, -289.671875, -276.84375, -264.015625, -251.1875, -238.359375, -225.53125, -212.703125, -199.875, -187.046875, -174.21875, -161.390625, -148.5625, -135.734375, -122.90625, -110.078125, -97.25, -84.421875, -71.59375, -58.765625, -45.9375, -33.109375, -20.28125, -7.453125, 5.375, 18.203125, 31.03125, 43.859375, 56.6875, 69.515625, 82.34375, 95.171875, 108.0, 120.828125, 133.65625, 146.484375, 159.3125, 172.140625, 184.96875, 197.796875, 210.625, 223.453125, 236.28125, 249.109375, 261.9375, 274.765625, 287.59375, 300.421875, 313.25]}, "gradients/seq.5.weight": {"_type": "histogram", "values": [1.0, 0.0, 0.0, 0.0, 0.0, 0.0, 1.0, 1.0, 1.0, 0.0, 1.0, 1.0, 1.0, 2.0, 4.0, 0.0, 2.0, 1.0, 2.0, 2.0, 5.0, 4.0, 2.0, 3.0, 2.0, 3.0, 5.0, 0.0, 5.0, 2.0, 0.0, 2.0, 0.0, 0.0, 4.0, 1.0, 0.0, 0.0, 0.0, 3.0, 0.0, 0.0, 0.0, 1.0, 0.0, 0.0, 0.0, 0.0, 0.0, 1.0, 0.0, 0.0, 0.0, 0.0, 0.0, 0.0, 0.0, 0.0, 0.0, 0.0, 0.0, 0.0, 0.0, 1.0], "bins": [-3457.549560546875, -3321.45263671875, -3185.35595703125, -3049.259033203125, -2913.162109375, -2777.0654296875, -2640.968505859375, -2504.87158203125, -2368.77490234375, -2232.677978515625, -2096.5810546875, -1960.4842529296875, -1824.387451171875, -1688.29052734375, -1552.1937255859375, -1416.0968017578125, -1280.0, -1143.903076171875, -1007.806396484375, -871.70947265625, -735.612548828125, -599.515869140625, -463.4189453125, -327.322021484375, -191.225341796875, -55.12841796875, 80.968505859375, 217.0654296875, 353.162109375, 489.259033203125, 625.35595703125, 761.452880859375, 897.5498046875, 1033.646484375, 1169.743408203125, 1305.84033203125, 1441.937255859375, 1578.033935546875, 1714.130859375, 1850.227783203125, 1986.32470703125, 2122.42138671875, 2258.518310546875, 2394.615234375, 2530.7119140625, 2666.808837890625, 2802.90576171875, 2939.00244140625, 3075.099365234375, 3211.1962890625, 3347.29296875, 3483.389892578125, 3619.48681640625, 3755.58349609375, 3891.680419921875, 4027.77734375, 4163.8740234375, 4299.97119140625, 4436.06787109375, 4572.16455078125, 4708.26171875, 4844.3583984375, 4980.455078125, 5116.55224609375, 5252.64892578125]}, "gradients/seq.5.bias": {"_type": "histogram", "values": [3.0, 0.0, 0.0, 0.0, 2.0, 0.0, 1.0, 0.0, 0.0, 1.0, 3.0, 0.0, 1.0, 2.0, 0.0, 2.0, 2.0, 0.0, 2.0, 3.0, 0.0, 4.0, 2.0, 1.0, 1.0, 2.0, 1.0, 4.0, 5.0, 3.0, 6.0, 0.0, 1.0, 2.0, 1.0, 0.0, 1.0, 1.0, 2.0, 0.0, 0.0, 0.0, 0.0, 0.0, 0.0, 1.0, 0.0, 0.0, 0.0, 0.0, 1.0, 0.0, 1.0, 0.0, 0.0, 0.0, 0.0, 0.0, 0.0, 0.0, 0.0, 1.0, 0.0, 1.0], "bins": [-3147.8447265625, -3023.40234375, -2898.9599609375, -2774.517333984375, -2650.074951171875, -2525.632568359375, -2401.18994140625, -2276.74755859375, -2152.30517578125, -2027.86279296875, -1903.4202880859375, -1778.977783203125, -1654.535400390625, -1530.093017578125, -1405.6505126953125, -1281.2080078125, -1156.765625, -1032.3232421875, -907.880859375, -783.438232421875, -658.995849609375, -534.553466796875, -410.11083984375, -285.66845703125, -161.22607421875, -36.78369140625, 87.65869140625, 212.101318359375, 336.543701171875, 460.986083984375, 585.4287109375, 709.87109375, 834.3134765625, 958.755859375, 1083.1982421875, 1207.640869140625, 1332.083251953125, 1456.525634765625, 1580.96826171875, 1705.41064453125, 1829.85302734375, 1954.29541015625, 2078.73779296875, 2203.180419921875, 2327.622802734375, 2452.065185546875, 2576.5078125, 2700.9501953125, 2825.392578125, 2949.8349609375, 3074.27734375, 3198.719970703125, 3323.162353515625, 3447.604736328125, 3572.04736328125, 3696.48974609375, 3820.93212890625, 3945.37451171875, 4069.81689453125, 4194.25927734375, 4318.7021484375, 4443.14453125, 4567.5869140625, 4692.029296875, 4816.4716796875]}, "gradients/seq.4.weight": {"_type": "histogram", "values": [2.0, 0.0, 5.0, 7.0, 10.0, 23.0, 37.0, 53.0, 75.0, 126.0, 190.0, 293.0, 449.0, 567.0, 697.0, 1061.0, 1427.0, 2189.0, 2731.0, 2750.0, 2205.0, 1448.0, 827.0, 404.0, 215.0, 114.0, 74.0, 50.0, 38.0, 26.0, 28.0, 19.0, 30.0, 27.0, 19.0, 22.0, 26.0, 24.0, 19.0, 18.0, 19.0, 7.0, 12.0, 11.0, 9.0, 7.0, 3.0, 6.0, 4.0, 6.0, 6.0, 1.0, 6.0, 1.0, 4.0, 0.0, 2.0, 0.0, 2.0, 0.0, 0.0, 0.0, 0.0, 1.0], "bins": [-1863.0, -1765.828125, -1668.65625, -1571.484375, -1474.3125, -1377.140625, -1279.96875, -1182.796875, -1085.625, -988.453125, -891.28125, -794.109375, -696.9375, -599.765625, -502.59375, -405.421875, -308.25, -211.078125, -113.90625, -16.734375, 80.4375, 177.609375, 274.78125, 371.953125, 469.125, 566.296875, 663.46875, 760.640625, 857.8125, 954.984375, 1052.15625, 1149.328125, 1246.5, 1343.671875, 1440.84375, 1538.015625, 1635.1875, 1732.359375, 1829.53125, 1926.703125, 2023.875, 2121.046875, 2218.21875, 2315.390625, 2412.5625, 2509.734375, 2606.90625, 2704.078125, 2801.25, 2898.421875, 2995.59375, 3092.765625, 3189.9375, 3287.109375, 3384.28125, 3481.453125, 3578.625, 3675.796875, 3772.96875, 3870.140625, 3967.3125, 4064.484375, 4161.65625, 4258.828125, 4356.0]}, "gradients/seq.1.weight": {"_type": "histogram", "values": [1.0, 0.0, 0.0, 0.0, 1.0, 0.0, 2.0, 0.0, 0.0, 0.0, 0.0, 1.0, 0.0, 1.0, 2.0, 2.0, 1.0, 0.0, 3.0, 2.0, 3.0, 1.0, 0.0, 1.0, 0.0, 2.0, 1.0, 2.0, 1.0, 0.0, 0.0, 1.0, 0.0, 1.0, 0.0, 0.0, 0.0, 0.0, 0.0, 0.0, 0.0, 1.0, 0.0, 0.0, 0.0, 0.0, 0.0, 0.0, 0.0, 0.0, 0.0, 0.0, 0.0, 0.0, 0.0, 0.0, 0.0, 0.0, 0.0, 0.0, 1.0, 0.0, 0.0, 1.0], "bins": [-1202.9482421875, -1149.041748046875, -1095.13525390625, -1041.2288818359375, -987.3223876953125, -933.4158935546875, -879.5093994140625, -825.6029663085938, -771.696533203125, -717.7900390625, -663.883544921875, -609.9771118164062, -556.0706176757812, -502.1641845703125, -448.2576904296875, -394.35125732421875, -340.44476318359375, -286.53826904296875, -232.6318359375, -178.725341796875, -124.81884765625, -70.9124755859375, -17.0059814453125, 36.9005126953125, 90.8070068359375, 144.7135009765625, 198.619873046875, 252.5263671875, 306.432861328125, 360.33935546875, 414.2457275390625, 468.1522216796875, 522.0587158203125, 575.9652099609375, 629.8717041015625, 683.778076171875, 737.6845703125, 791.591064453125, 845.49755859375, 899.4039306640625, 953.3104248046875, 1007.2169189453125, 1061.1234130859375, 1115.0299072265625, 1168.936279296875, 1222.8427734375, 1276.749267578125, 1330.65576171875, 1384.562255859375, 1438.46875, 1492.3751220703125, 1546.2816162109375, 1600.18798828125, 1654.094482421875, 1708.0009765625, 1761.907470703125, 1815.81396484375, 1869.720458984375, 1923.6268310546875, 1977.5333251953125, 2031.4398193359375, 2085.34619140625, 2139.252685546875, 2193.1591796875, 2247.065673828125]}, "gradients/seq.1.bias": {"_type": "histogram", "values": [1.0, 0.0, 0.0, 0.0, 0.0, 0.0, 0.0, 0.0, 2.0, 0.0, 0.0, 0.0, 0.0, 0.0, 0.0, 0.0, 1.0, 1.0, 0.0, 0.0, 0.0, 0.0, 0.0, 0.0, 1.0, 3.0, 0.0, 1.0, 2.0, 2.0, 2.0, 4.0, 2.0, 0.0, 1.0, 1.0, 0.0, 1.0, 0.0, 2.0, 1.0, 1.0, 0.0, 0.0, 0.0, 0.0, 0.0, 0.0, 0.0, 0.0, 1.0, 0.0, 0.0, 0.0, 0.0, 0.0, 0.0, 0.0, 0.0, 0.0, 1.0, 0.0, 0.0, 1.0], "bins": [-1379.2391357421875, -1334.238525390625, -1289.23779296875, -1244.2371826171875, -1199.236572265625, -1154.2359619140625, -1109.2353515625, -1064.234619140625, -1019.2340087890625, -974.2333984375, -929.2327270507812, -884.2320556640625, -839.2314453125, -794.2308349609375, -749.2301635742188, -704.2294921875, -659.2288818359375, -614.228271484375, -569.2276000976562, -524.2269287109375, -479.226318359375, -434.2257080078125, -389.22503662109375, -344.224365234375, -299.2237548828125, -254.22314453125, -209.2225341796875, -164.2218017578125, -119.22119140625, -74.2205810546875, -29.2198486328125, 15.78076171875, 60.781494140625, 105.7821044921875, 150.78271484375, 195.783447265625, 240.7840576171875, 285.78466796875, 330.785400390625, 375.7860107421875, 420.78662109375, 465.7872314453125, 510.78790283203125, 555.78857421875, 600.7891845703125, 645.789794921875, 690.7904663085938, 735.7911376953125, 780.791748046875, 825.7923583984375, 870.7930297851562, 915.793701171875, 960.7943115234375, 1005.794921875, 1050.795654296875, 1095.7962646484375, 1140.796875, 1185.7974853515625, 1230.798095703125, 1275.798828125, 1320.7994384765625, 1365.800048828125, 1410.80078125, 1455.8013916015625, 1500.802001953125]}, "gradients/seq.0.weight": {"_type": "histogram", "values": [2.0, 2.0, 1.0, 4.0, 7.0, 2.0, 5.0, 5.0, 4.0, 3.0, 10.0, 5.0, 5.0, 15.0, 16.0, 11.0, 17.0, 26.0, 51.0, 33.0, 55.0, 49.0, 50.0, 43.0, 35.0, 23.0, 28.0, 27.0, 26.0, 19.0, 15.0, 15.0, 10.0, 9.0, 12.0, 12.0, 8.0, 14.0, 12.0, 19.0, 16.0, 11.0, 12.0, 14.0, 15.0, 11.0, 12.0, 10.0, 6.0, 4.0, 3.0, 6.0, 5.0, 1.0, 4.0, 6.0, 3.0, 1.0, 8.0, 3.0, 3.0, 1.0, 2.0, 2.0], "bins": [-1634.0, -1556.4375, -1478.875, -1401.3125, -1323.75, -1246.1875, -1168.625, -1091.0625, -1013.5, -935.9375, -858.375, -780.8125, -703.25, -625.6875, -548.125, -470.5625, -393.0, -315.4375, -237.875, -160.3125, -82.75, -5.1875, 72.375, 149.9375, 227.5, 305.0625, 382.625, 460.1875, 537.75, 615.3125, 692.875, 770.4375, 848.0, 925.5625, 1003.125, 1080.6875, 1158.25, 1235.8125, 1313.375, 1390.9375, 1468.5, 1546.0625, 1623.625, 1701.1875, 1778.75, 1856.3125, 1933.875, 2011.4375, 2089.0, 2166.5625, 2244.125, 2321.6875, 2399.25, 2476.8125, 2554.375, 2631.9375, 2709.5, 2787.0625, 2864.625, 2942.1875, 3019.75, 3097.3125, 3174.875, 3252.4375, 3330.0]}, "_wandb": {"runtime": 1026}}